tree
version=v4
num_class=1
num_tree_per_iteration=1
label_index=0
max_feature_idx=9
objective=binary sigmoid:1
feature_names=Time_spent_Alone Stage_fear Social_event_attendance Going_outside Drained_after_socializing Friends_circle_size Post_frequency social_alone_ratio friends_and_posts drained_by_social
feature_infos=[-1.3061130440449122:1.8902817472886284] -1:0:1 [-1.3711602095438489:2.1065069302822499] [-1.3506125718583959:1.8008167624778617] -1:0:1 [-1.4717658310913859:2.0688720216060643] [-1.2272656624457137:2.2278070694177652] [-0.83024317805409276:3.5028430904560097] [-0.91344906840600582:3.2682743352071726] [-0.67204457786057725:2.1281411632251617]
tree_sizes=966 974 968 977 972 970 978 979 973 979 982 973 978 988 985 979 982 984 983 979 979 993 984 982 981 982 979 986 987 983 984 988 980 983 979 985 987 779 782 991 782 776 780 781 777 781 784 782 981 995 772 885 978 885 777 883 975 874 1009 989 885 885 989 979 989 772 873 985 982 987 780 879 986 987 985 775 875 892 985 985 881 887 988 991 884 782 885 993 981 986 879 891 887 773 879 993 991 995 984 881

Tree=0
num_leaves=8
num_cat=0
split_feature=7 0 2 5 7 5 5
split_gain=1554.64 4.68882 6.04283 3.25311 5.04061 0.91077 0.256229
threshold=-0.53234349709402307 0.5826656962885437 -0.50174342458732391 1.0066806657968295 2.5549804692194251 0.29855309525733914 -1.3537445693348042
decision_type=2 2 2 2 2 2 2
left_child=1 6 -3 5 -5 -2 -1
right_child=3 2 -4 4 -6 -7 -8
leaf_value=0.14620335905240855 -0.22025063000063855 0.12716709629145057 0.17412002535876828 -0.19539112472777251 -0.11397917159097261 -0.20441824622106258 0.16677766376928135
leaf_weight=6.4989337921142569 70.488435745239258 126.47924995422363 34.994258880615234 97.484006881713867 8.2486467361450178 74.987697601318359 88.23552417755127
leaf_count=26 282 506 140 390 33 300 353
internal_value=-0.0256172 0.147705 0.137343 -0.202388 -0.18904 -0.21209 0.165366
internal_weight=507.417 256.208 161.474 251.209 105.733 145.476 94.7345
internal_count=2030 1025 646 1005 423 582 379
is_linear=0
shrinkage=1


Tree=1
num_leaves=8
num_cat=0
split_feature=7 0 2 5 7 5 3
split_gain=1269.86 3.92149 5.0548 2.75715 4.20731 0.777574 0.232842
threshold=-0.53234349709402307 0.5826656962885437 -0.50174342458732391 1.0066806657968295 2.5549804692194251 0.29855309525733914 -0.67530628592919795
decision_type=2 2 2 2 2 2 2
left_child=1 6 -3 5 -5 -2 -1
right_child=3 2 -4 4 -6 -7 -8
leaf_value=0.17666472331684413 -0.17736034573526707 0.1380546630066464 0.18114074387186849 -0.15429382612091758 -0.079782053178804754 -0.16264978554588264 0.16618640159266945
leaf_weight=61.825517818331718 69.651872009038925 125.98995000123978 34.736054539680481 96.575310677289963 8.2232636958360654 74.22192245721817 32.279040068387985
leaf_count=249 282 506 140 390 33 300 130
internal_value=-2.05809e-05 0.156859 0.147366 -0.160785 -0.148447 -0.169771 0.173071
internal_weight=503.503 254.831 160.726 248.672 104.799 143.874 94.1046
internal_count=2030 1025 646 1005 423 582 379
is_linear=0
shrinkage=0.1


Tree=2
num_leaves=8
num_cat=0
split_feature=7 0 7 8 2 7 5
split_gain=1051.95 3.49624 4.78637 2.51865 2.49876 2.15926 0.225517
threshold=-0.53234349709402307 0.5826656962885437 -0.80664919505794386 1.655323879527804 1.2370901453257257 2.8257983610013064 -1.3537445693348042
decision_type=2 2 2 2 2 2 2
left_child=1 6 -3 5 -5 -2 -1
right_child=3 2 -4 4 -6 -7 -8
leaf_value=0.14114252586540033 -0.15502491831474202 0.087981977754180818 0.14129395327742819 -0.14253500094765734 -0.089749842680984085 -0.10424778377049156 0.16069099645265209
leaf_weight=6.3375273644924155 192.99942265450954 19.161060959100723 139.05866181850433 28.152543351054192 13.16038306057453 8.7545526474714261 85.749162375926971
leaf_count=26 799 78 568 116 54 36 353
internal_value=-3.77776e-05 0.143854 0.134838 -0.148215 -0.12572 -0.152822 0.159346
internal_weight=493.373 250.306 158.22 243.067 41.3129 201.754 92.0867
internal_count=2030 1025 646 1005 170 835 379
is_linear=0
shrinkage=0.1


Tree=3
num_leaves=8
num_cat=0
split_feature=7 2 0 5 7 5 0
split_gain=880.386 3.60746 4.33185 2.50732 3.56926 0.762172 0.348332
threshold=-0.53234349709402307 -0.50174342458732391 0.5826656962885437 1.0066806657968295 2.5549804692194251 0.29855309525733914 1.0000000180025095e-35
decision_type=2 2 2 2 2 2 2
left_child=1 2 -1 5 -5 -2 -3
right_child=3 6 -4 4 -6 -7 -8
leaf_value=0.14716574732550899 -0.15459312851255982 0.13647885504014068 0.11535550123785997 -0.13154867830398936 -0.062145083272228299 -0.13958856856932217 0.15875564395893624
leaf_weight=66.068468779325485 65.410333067178726 8.2290527522563917 121.60264524817467 91.756542339920998 8.0609000176191312 70.171716973185539 47.742873132228851
leaf_count=281 282 35 506 390 33 300 203
internal_value=-5.31535e-05 0.133199 0.126554 -0.137972 -0.125944 -0.146827 0.15548
internal_weight=479.043 243.643 187.671 235.399 99.8174 135.582 55.9719
internal_count=2030 1025 787 1005 423 582 238
is_linear=0
shrinkage=0.1


Tree=4
num_leaves=8
num_cat=0
split_feature=7 9 0 5 7 0 8
split_gain=742.778 3.57188 3.87777 2.75971 2.94683 0.220452 0.06747
threshold=-0.41047544579217649 1.661443539710872 1.7449910749552859 0.29855309525733914 0.21917615260069773 1.0000000180025095e-35 0.53521939641713112
decision_type=2 2 2 2 2 2 2
left_child=1 2 -1 6 -5 -3 -2
right_child=3 5 -4 4 -6 -7 -8
leaf_value=0.12220365056688383 -0.14939320907156514 0.1313432753838828 0.073967966803736906 -0.13991566105846684 -0.11235890215342448 0.14967442424180172 -0.14102978272201847
leaf_weight=165.40888303518295 50.014577358961105 7.6936543285846701 18.534031957387924 63.22587625682354 100.47301140427589 44.541166245937347 11.950714737176893
leaf_count=717 226 34 79 280 442 198 54
internal_value=-6.68958e-05 0.123897 0.117343 -0.129806 -0.123002 0.146974 -0.14778
internal_weight=461.842 236.178 183.943 225.664 163.699 52.2348 61.9653
internal_count=2030 1028 796 1002 722 232 280
is_linear=0
shrinkage=0.1


Tree=5
num_leaves=8
num_cat=0
split_feature=7 0 2 5 7 5 3
split_gain=630.41 3.36363 4.36713 2.5078 3.39465 0.708725 0.244334
threshold=-0.53234349709402307 0.5826656962885437 -0.50174342458732391 1.0066806657968295 2.5549804692194251 0.29855309525733914 -0.67530628592919795
decision_type=2 2 2 2 2 2 2
left_child=1 6 -3 5 -5 -2 -1
right_child=3 2 -4 4 -6 -7 -8
leaf_value=0.13667866165715611 -0.13933003166390495 0.098492825211308643 0.14140085931036556 -0.11546280503695205 -0.046505336145930859 -0.12417996000238994 0.1251784699088461
leaf_weight=53.721314713358879 59.120374530553818 114.77581632137299 29.899404525756836 84.958012729883194 7.793813243508338 64.637261211872101 28.157932221889496
leaf_count=249 282 506 140 390 33 300 130
internal_value=-8.1524e-05 0.116527 0.10736 -0.1221 -0.109668 -0.131417 0.132724
internal_weight=443.064 226.554 144.675 216.509 92.7518 123.758 81.8792
internal_count=2030 1025 646 1005 423 582 379
is_linear=0
shrinkage=0.1


Tree=6
num_leaves=8
num_cat=0
split_feature=7 9 0 5 7 0 8
split_gain=537.486 3.49346 3.73305 2.77922 2.89495 0.216612 0.0704896
threshold=-0.41047544579217649 1.661443539710872 0.5826656962885437 0.29855309525733914 0.21917615260069773 1.0000000180025095e-35 0.53521939641713112
decision_type=2 2 2 2 2 2 2
left_child=1 2 -1 6 -5 -3 -2
right_child=3 5 -4 4 -6 -7 -8
leaf_value=0.12316320975360373 -0.13700677845352988 0.11734901132269343 0.092046496907222983 -0.12666214534046194 -0.098103686371684373 0.13641173073900292 -0.12796353434093424
leaf_weight=58.803941532969475 44.553803563117981 7.0070215612649909 111.9626536667347 57.480386137962341 92.803519785404205 39.927679255604744 10.686869800090788
leaf_count=286 226 34 510 280 442 198 54
internal_value=-9.34159e-05 0.109403 0.102762 -0.116077 -0.109027 0.133566 -0.135257
internal_weight=423.226 217.701 170.767 205.525 150.284 46.9347 55.2407
internal_count=2030 1028 796 1002 722 232 280
is_linear=0
shrinkage=0.1


Tree=7
num_leaves=8
num_cat=0
split_feature=7 2 0 5 7 5 0
split_gain=459.813 3.35008 4.18636 2.62361 3.28403 0.729966 0.346656
threshold=-0.53234349709402307 -0.50174342458732391 0.5826656962885437 1.0066806657968295 2.5549804692194251 0.29855309525733914 1.0000000180025095e-35
decision_type=2 2 2 2 2 2 2
left_child=1 2 -1 5 -5 -2 -3
right_child=3 6 -4 4 -6 -7 -8
leaf_value=0.11948433257638867 -0.12874465313778377 0.10696316197669715 0.085489741017880996 -0.10290145708953309 -0.033589578692369899 -0.11248376885715367 0.13140808656066758
leaf_weight=54.651940256357193 52.188687190413475 6.832375079393386 107.44510592520237 77.518039762973785 7.4969482570886603 58.610285952687263 38.440058305859566
leaf_count=281 282 35 506 390 33 300 203
internal_value=-0.000105677 0.103668 0.0969512 -0.110004 -0.0967893 -0.120143 0.127719
internal_weight=403.183 207.369 162.097 195.814 85.015 110.799 45.2724
internal_count=2030 1025 787 1005 423 582 238
is_linear=0
shrinkage=0.1


Tree=8
num_leaves=8
num_cat=0
split_feature=7 9 0 5 2 0 8
split_gain=394.358 3.54712 3.78273 2.93161 3.0302 0.21234 0.0779468
threshold=-0.41047544579217649 1.661443539710872 1.7449910749552859 0.29855309525733914 0.5415567173605057 1.0000000180025095e-35 0.53521939641713112
decision_type=2 2 2 2 2 2 2
left_child=1 2 -1 6 -5 -3 -2
right_child=3 5 -4 4 -6 -7 -8
leaf_value=0.096266331494691479 -0.1283707529461959 0.10701729026413978 0.045691306241359697 -0.1182245475355132 -0.086899349037698762 0.12691600220415317 -0.11821832490960747
leaf_weight=140.5029294192791 38.906603008508682 6.3329407125711432 16.52851440012455 47.200854524970055 89.310824900865555 35.00258594751358 9.3869403004646284
leaf_count=717 226 34 79 253 469 198 54
internal_value=-0.000116128 0.0978037 0.090943 -0.105222 -0.0977305 0.123867 -0.126397
internal_weight=383.172 198.367 157.031 184.805 136.512 41.3355 48.2935
internal_count=2030 1028 796 1002 722 232 280
is_linear=0
shrinkage=0.1


Tree=9
num_leaves=8
num_cat=0
split_feature=7 0 5 5 7 8 5
split_gain=338.673 3.54502 4.82232 2.79524 3.17711 0.7883 0.328457
threshold=-0.53234349709402307 0.5826656962885437 -0.40957447528215091 1.0066806657968295 2.5549804692194251 0.14691650893876443 -1.3537445693348042
decision_type=2 2 2 2 2 2 2
left_child=1 6 -3 5 -5 -2 -1
right_child=3 2 -4 4 -6 -7 -8
leaf_value=0.085969492648219736 -0.12367529721173634 0.074502612790954173 0.12925733297806608 -0.092376679058172317 -0.022649874771465298 -0.10480678650162081 0.11373759324500171
leaf_weight=4.5801441669464102 33.775270447134972 103.81443341076374 19.033748239278793 70.188916638493538 7.2056875824928275 64.285487174987793 60.898988783359528
leaf_count=26 205 545 101 390 33 377 353
internal_value=-0.000128631 0.0930027 0.0829862 -0.100092 -0.0858849 -0.111306 0.111795
internal_weight=363.783 188.327 122.848 175.455 77.3946 98.0608 65.4791
internal_count=2030 1025 646 1005 423 582 379
is_linear=0
shrinkage=0.1


Tree=10
num_leaves=8
num_cat=0
split_feature=7 9 0 5 7 0 8
split_gain=291.245 3.91385 3.90107 3.20715 3.26049 0.248499 0.083658
threshold=-0.41047544579217649 1.661443539710872 0.5826656962885437 0.29855309525733914 0.21917615260069773 1.0000000180025095e-35 0.53521939641713112
decision_type=2 2 2 2 2 2 2
left_child=1 2 -1 6 -5 -3 -2
right_child=3 5 -4 4 -6 -7 -8
leaf_value=0.10411098901232728 -0.12220003206540396 0.097825007183411972 0.068948843249011155 -0.10896904731997295 -0.075361243557173552 0.12065531610067447 -0.1109511382263728
leaf_weight=46.851146683096886 33.594550251960754 5.6402006298303595 96.626789256930351 46.133783057332039 77.128246292471886 30.816428676247597 8.2311965823173505
leaf_count=286 226 34 510 280 442 198 54
internal_value=-0.000139723 0.087865 0.0804307 -0.0960589 -0.0879398 0.117123 -0.119986
internal_weight=345.022 179.935 143.478 165.088 123.262 36.4566 41.8257
internal_count=2030 1028 796 1002 722 232 280
is_linear=0
shrinkage=0.1


Tree=11
num_leaves=8
num_cat=0
split_feature=7 2 0 8 3 8 0
split_gain=250.553 3.7583 4.36831 2.99272 3.14453 2.86374 0.44048
threshold=-0.53234349709402307 -0.50174342458732391 0.5826656962885437 1.655323879527804 1.575714667168129 2.0286920405646951 1.0000000180025095e-35
decision_type=2 2 2 2 2 2 2
left_child=1 2 -1 4 -2 -5 -3
right_child=3 6 -4 5 -6 -7 -8
leaf_value=0.10247876563502006 -0.10355586767995413 0.086847616629448468 0.0639497179271004 -0.030942314544196988 -0.053244933066335799 -0.094079171288628222 0.11786891018325106
leaf_weight=43.114867776632309 113.8515677601099 5.4232315868139258 92.684586822986603 14.441358208656313 13.944728612899778 14.295510724186896 29.343686819076538
leaf_count=281 746 35 506 86 89 84 203
internal_value=-0.000149888 0.083693 0.0761823 -0.0915093 -0.0980661 -0.0623505 0.11303
internal_weight=327.1 170.566 135.799 156.533 127.796 28.7369 34.7669
internal_count=2030 1025 787 1005 835 170 238
is_linear=0
shrinkage=0.1


Tree=12
num_leaves=8
num_cat=0
split_feature=7 9 0 5 2 0 8
split_gain=215.635 3.98378 3.75474 3.57806 3.45119 0.258119 0.0950011
threshold=-0.41047544579217649 1.661443539710872 1.7449910749552859 0.29855309525733914 0.5415567173605057 1.0000000180025095e-35 0.53521939641713112
decision_type=2 2 2 2 2 2 2
left_child=1 2 -1 6 -5 -3 -2
right_child=3 5 -4 4 -6 -7 -8
leaf_value=0.077446845672658138 -0.11776837258186226 0.0903802282509161 0.023788222491417974 -0.10364022526124597 -0.066382493085547445 0.11504024574222604 -0.1049300354010439
leaf_weight=116.79165138304234 28.94659748673439 5.0579867660999325 14.679806858301161 37.575432360172272 73.481142863631248 26.393359303474426 7.1968676298856726
leaf_count=717 226 34 79 253 469 198 54
internal_value=-0.000156573 0.0791037 0.0714554 -0.0878828 -0.0789885 0.111074 -0.115212
internal_weight=310.123 162.923 131.471 147.2 111.057 31.4513 36.1435
internal_count=2030 1028 796 1002 722 232 280
is_linear=0
shrinkage=0.1


Tree=13
num_leaves=8
num_cat=0
split_feature=7 2 0 5 7 8 0
split_gain=185.398 3.80302 4.48194 3.27093 3.57146 2.25268 0.477637
threshold=-0.53234349709402307 -0.50174342458732391 0.5826656962885437 1.0066806657968295 0.21917615260069773 1.4910418886715722 1.0000000180025095e-35
decision_type=2 2 2 2 2 2 2
left_child=1 2 -1 5 -5 -2 -3
right_child=3 6 -4 4 -6 -7 -8
leaf_value=0.096052471761678984 -0.10094259757877831 0.078579109001282843 0.054970957724519848 -0.098576052513704493 -0.049239574333054328 -0.006319056223013448 0.11288892754859753
leaf_weight=38.370196342468262 73.315787360072136 4.8415531218051937 86.255365610122681 22.903662547469139 40.828467845916748 2.6053548902273169 25.056101240217686
leaf_count=281 564 35 506 163 260 18 203
internal_value=-0.000167195 0.0753032 0.0676193 -0.0836735 -0.0669698 -0.0976954 0.107333
internal_weight=294.176 154.523 124.626 139.653 63.7321 75.9211 29.8977
internal_count=2030 1025 787 1005 423 582 238
is_linear=0
shrinkage=0.1


Tree=14
num_leaves=8
num_cat=0
split_feature=7 9 5 0 2 0 8
split_gain=159.526 4.03001 3.85346 3.79064 3.53023 0.272653 0.112308
threshold=-0.41047544579217649 1.661443539710872 0.29855309525733914 0.5826656962885437 0.5415567173605057 1.0000000180025095e-35 0.53521939641713112
decision_type=2 2 2 2 2 2 2
left_child=1 3 6 -1 -4 -3 -2
right_child=2 5 4 -5 -6 -7 -8
leaf_value=0.090062127193617933 -0.11427809515326537 0.083668008834804658 -0.097527792803655047 0.051562864900214646 -0.057683329551526621 0.11053540794072313 -0.099243053945956269
leaf_weight=36.747926987707615 24.70273029059172 4.5415425449609783 33.248943388462067 84.111280724406242 67.137325674295425 22.439853519201279 6.2190097495913497
leaf_count=286 226 34 253 510 469 198 54
internal_value=-0.000174028 0.0710698 -0.0803879 0.0632688 -0.0708802 0.106013 -0.111254
internal_weight=279.149 147.841 131.308 120.859 100.386 26.9814 30.9217
internal_count=2030 1028 1002 796 722 232 280
is_linear=0
shrinkage=0.1


Tree=15
num_leaves=8
num_cat=0
split_feature=7 8 7 9 5 0 3
split_gain=137.037 4.27656 5.03478 4.10138 3.55622 0.296266 0.232365
threshold=-0.34954142014125306 0.2663943204705696 0.21917615260069773 1.661443539710872 -0.64561699879531431 1.0000000180025095e-35 1.1255104765486637
decision_type=2 2 2 2 2 2 2
left_child=3 6 -3 4 -1 -5 -2
right_child=1 2 -4 5 -6 -7 -8
leaf_value=0.046441131466132157 -0.11506636643491208 -0.097932454728728024 -0.04895202590972722 0.07973331867510787 0.083250017693489303 0.10858078494889858 -0.096898607969000849
leaf_weight=77.22955583781004 21.105634599924091 32.573094315826893 58.99697645008564 4.3017317578196552 39.759999923408031 20.651240646839142 10.563435040414332
leaf_count=525 191 272 438 34 279 198 93
internal_value=-0.000181564 -0.0773303 -0.0663752 0.0668015 0.058951 0.103608 -0.109006
internal_weight=265.182 123.239 91.5701 141.943 116.99 24.953 31.6691
internal_count=2030 994 710 1036 804 232 284
is_linear=0
shrinkage=0.1


Tree=16
num_leaves=8
num_cat=0
split_feature=7 8 0 5 3 2 7
split_gain=117.707 4.11911 4.83687 3.62182 3.83311 0.353268 0.102002
threshold=-0.53234349709402307 -0.70436289822534681 0.5826656962885437 0.29855309525733914 1.0000000180025095e-35 0.1937900033778957 -0.79397292469044778
decision_type=2 2 2 2 2 2 2
left_child=1 2 -1 5 -5 -2 -3
right_child=3 6 -4 4 -6 -7 -8
leaf_value=0.087229355343634921 -0.085607363629280203 0.12161263634338837 0.043149091455328477 -0.11792144712270863 -0.05573363614583729 -0.11187532787257443 0.10386285808739593
leaf_weight=36.212750308215618 6.87442818284035 4.1982170864939716 79.634014658629894 11.313504025340078 79.983866684138775 20.058599770069122 14.149470724165438
leaf_count=324 70 29 557 91 632 212 115
internal_value=-0.000195502 0.0639006 0.0569282 -0.0729462 -0.0634399 -0.105171 0.107924
internal_weight=252.425 134.194 115.847 118.23 91.2974 26.933 18.3477
internal_count=2030 1025 881 1005 723 282 144
is_linear=0
shrinkage=0.1


Tree=17
num_leaves=8
num_cat=0
split_feature=7 8 7 9 0 0 3
split_gain=100.898 4.44429 5.11186 4.30657 3.70714 0.345555 0.259097
threshold=-0.34954142014125306 0.2663943204705696 0.21917615260069773 1.661443539710872 1.4544097302886003 1.0000000180025095e-35 1.1255104765486637
decision_type=2 2 2 2 2 2 2
left_child=3 6 -3 4 -1 -5 -2
right_child=1 2 -4 5 -6 -7 -8
leaf_value=0.062627079818595888 -0.11239175692615258 -0.093025013395571621 -0.040920281619859479 0.072703406252961275 0.020916549183442733 0.10578178699110928 -0.091814351983290063
leaf_weight=78.845516018569469 18.061118632555011 28.778356827795506 54.461546905338764 3.8273891806602505 29.199485674500465 18.060662038624287 9.2543065398931486
leaf_count=614 191 272 438 34 190 198 93
internal_value=-0.000199251 -0.0704198 -0.0589343 0.0595489 0.0513547 0.0999976 -0.10542
internal_weight=240.488 110.555 83.2399 129.933 108.045 21.8881 27.3154
internal_count=2030 994 710 1036 804 232 284
is_linear=0
shrinkage=0.1


Tree=18
num_leaves=8
num_cat=0
split_feature=7 8 0 5 2 2 9
split_gain=86.3631 4.13243 4.67968 3.81884 4.09056 0.388552 0.107826
threshold=-0.53234349709402307 -0.70436289822534681 0.5826656962885437 0.29855309525733914 0.5415567173605057 0.1937900033778957 1.0000000180025095e-35
decision_type=2 2 2 2 2 2 2
left_child=1 2 -1 5 -5 -2 -3
right_child=3 6 -4 4 -6 -7 -8
leaf_value=0.081600411265576558 -0.080299517808298665 0.11670099909716627 0.03595636197222303 -0.088239324278590922 -0.040859231572337396 -0.10978253719010125 0.098654125205783816
leaf_weight=32.134998477995396 6.0513878315687206 4.6234708651900318 74.621288739144802 26.92095785588026 56.390031799674034 17.104652389883995 11.659831725060938
leaf_count=324 70 39 557 254 469 212 105
internal_value=-0.000209418 0.0568532 0.0496958 -0.0661543 -0.0561695 -0.102078 0.103778
internal_weight=229.507 123.04 106.756 106.467 83.311 23.156 16.2833
internal_count=2030 1025 881 1005 723 282 144
is_linear=0
shrinkage=0.1


Tree=19
num_leaves=8
num_cat=0
split_feature=7 8 7 9 0 0 3
split_gain=73.91 4.5651 5.05779 4.4229 3.39746 0.394424 0.297108
threshold=-0.34954142014125306 0.2663943204705696 0.21917615260069773 1.661443539710872 1.7449910749552859 1.0000000180025095e-35 1.1255104765486637
decision_type=2 2 2 2 2 2 2
left_child=3 6 -3 4 -1 -5 -2
right_child=1 2 -4 5 -6 -7 -8
leaf_value=0.051275251004863832 -0.11036533736731671 -0.088291278968791631 -0.033639649351411727 0.065886761012971098 -0.0046260618039377791 0.10333604006547221 -0.08671369937216783
leaf_weight=87.950420506298542 15.486933417618276 25.424482546746731 50.706428751349449 3.4196490421891239 12.405518025159834 15.837541796267031 8.0833637118339521
leaf_count=725 191 272 438 34 79 198 93
internal_value=-0.000211915 -0.0637973 -0.051891 0.0527884 0.044365 0.0966859 -0.102254
internal_weight=219.314 99.7012 76.1309 119.613 100.356 19.2572 23.5703
internal_count=2030 994 710 1036 804 232 284
is_linear=0
shrinkage=0.1


Tree=20
num_leaves=8
num_cat=0
split_feature=7 8 7 9 5 5 3
split_gain=62.9813 4.48521 4.76124 4.27852 3.44724 0.483435 0.314855
threshold=-0.34954142014125306 0.2663943204705696 0.21917615260069773 1.661443539710872 -0.64561699879531431 -1.3537445693348042 1.1255104765486637
decision_type=2 2 2 2 2 2 2
left_child=3 6 -3 4 -1 -5 -2
right_child=1 2 -4 5 -6 -7 -8
leaf_value=0.028104820333261612 -0.10929440738745365 -0.085571474978686238 -0.031063141598456235 0.038291727620996599 0.068192866282925285 0.099405735696644043 -0.083991413437145085
leaf_weight=65.412267446517944 14.14343222230673 23.699071981012821 49.487179353833199 1.4053492024540926 31.91746474802494 16.389734357595444 7.5391531735658637
leaf_count=525 191 272 438 18 279 214 93
internal_value=-0.00022012 -0.060549 -0.048714 0.049494 0.0412509 0.0945793 -0.100496
internal_weight=209.994 94.8688 73.1863 115.125 97.3297 17.7951 21.6826
internal_count=2030 994 710 1036 804 232 284
is_linear=0
shrinkage=0.1


Tree=21
num_leaves=8
num_cat=0
split_feature=7 8 7 5 3 2 9
split_gain=53.7738 4.11046 4.68103 4.0861 4.55146 0.438221 0.120659
threshold=-0.53234349709402307 -0.70436289822534681 -0.79827162138539831 0.29855309525733914 1.0000000180025095e-35 0.1937900033778957 1.0000000180025095e-35
decision_type=2 2 2 2 2 2 2
left_child=1 2 -1 5 -5 -2 -3
right_child=3 6 -4 4 -6 -7 -8
leaf_value=-0.0038786164574593166 -0.073128331081631054 0.11328259787453306 0.051006343477904587 -0.11362141900405037 -0.03675100375173012 -0.10759235919758257 0.092468662560435955
leaf_weight=19.518160872161388 5.0565012283623245 3.8886984661221495 76.230239316821098 8.744888558983801 64.619460739195347 13.646636992692946 9.8144942969083768
leaf_count=151 70 39 730 91 632 212 105
internal_value=-0.000227803 0.0471494 0.0398181 -0.0565507 -0.0459138 -0.0982748 0.0983753
internal_weight=201.519 109.452 95.7484 92.0675 73.3643 18.7031 13.7032
internal_count=2030 1025 881 1005 723 282 144
is_linear=0
shrinkage=0.1


Tree=22
num_leaves=8
num_cat=0
split_feature=7 8 7 9 0 0 3
split_gain=45.6799 4.50049 4.65409 4.23182 3.52037 0.480064 0.351497
threshold=-0.34954142014125306 0.2663943204705696 0.21917615260069773 1.661443539710872 0.5826656962885437 1.0000000180025095e-35 1.1255104765486637
decision_type=2 2 2 2 2 2 2
left_child=3 6 -3 4 -1 -5 -2
right_child=1 2 -4 5 -6 -7 -8
leaf_value=0.066689293198859204 -0.10782432584593871 -0.081180453843815087 -0.024625301717289966 0.054717270098331133 0.022956686853979891 0.099687583031962762 -0.079223366600887912
leaf_weight=25.528740733861923 12.082503594458105 21.162663727998734 46.574121847748756 2.9147105440497389 65.979160636663437 12.79178276658058 6.6685089692473403
leaf_count=294 191 272 438 34 510 198 93
internal_value=-0.000227992 -0.0542965 -0.0422945 0.043388 0.0351571 0.0913423 -0.0976528
internal_weight=193.702 86.4878 67.7368 107.214 91.5079 15.7065 18.751
internal_count=2030 994 710 1036 804 232 284
is_linear=0
shrinkage=0.1


Tree=23
num_leaves=8
num_cat=0
split_feature=8 5 3 9 0 0 7
split_gain=38.9104 4.68991 4.55405 3.9527 3.49029 0.496908 0.244569
threshold=-0.42060309583730976 0.29855309525733914 1.0000000180025095e-35 1.661443539710872 0.5826656962885437 -1.0000000180025095e-35 1.2685954832554884
decision_type=2 2 2 2 2 2 2
left_child=3 6 -3 4 -1 -5 -2
right_child=1 2 -4 5 -6 -7 -8
leaf_value=0.065974393884331919 -0.10757672127071401 -0.11208603003779545 -0.030474536892793419 0.05138311205798414 0.0210105070934525 0.098270507538928728 -0.077081670765820898
leaf_weight=23.515068780630827 11.980039462447165 7.7089847885072222 60.480356678366661 2.7996186539530763 64.938577242195606 11.732967853546139 3.3696356564760199
leaf_count=296 210 91 632 34 510 198 59
internal_value=-0.00023079 -0.0509426 -0.0397009 0.0409049 0.032964 0.0892379 -0.100882
internal_weight=186.525 83.539 68.1893 102.986 88.4536 14.5326 15.3497
internal_count=2030 992 723 1038 806 232 269
is_linear=0
shrinkage=0.1


Tree=24
num_leaves=8
num_cat=0
split_feature=7 8 2 9 5 0 3
split_gain=33.0056 4.45916 4.77097 3.76721 3.23255 0.511732 0.38994
threshold=-0.34954142014125306 0.2663943204705696 0.5415567173605057 1.661443539710872 -0.64561699879531431 1.0000000180025095e-35 1.1255104765486637
decision_type=2 2 2 2 2 2 2
left_child=3 6 -3 4 -1 -5 -2
right_child=1 2 -4 5 -6 -7 -8
leaf_value=0.017135773954742049 -0.10666582343056941 -0.078338419233436221 -0.018357404743584667 0.04813995647201702 0.058578865925255602 0.096866560959197712 -0.074544699536210554
leaf_weight=59.45609176158905 10.375084288418295 18.93486911803484 44.255633864551783 2.6950168237090102 27.538174755871296 10.762546535581349 5.9449074007570735
leaf_count=525 191 240 470 34 279 198 93
internal_value=-0.000229629 -0.0483656 -0.0363306 0.0378714 0.0302547 0.0871086 -0.094965
internal_weight=179.962 79.5105 63.1905 100.452 86.9943 13.4576 16.32
internal_count=2030 994 710 1036 804 232 284
is_linear=0
shrinkage=0.1


Tree=25
num_leaves=8
num_cat=0
split_feature=8 5 3 9 0 0 7
split_gain=27.9612 4.65515 4.51951 3.49393 3.2604 0.524155 0.275983
threshold=-0.42060309583730976 0.29855309525733914 1.0000000180025095e-35 1.661443539710872 0.5826656962885437 -1.0000000180025095e-35 1.2685954832554884
decision_type=2 2 2 2 2 2 2
left_child=3 6 -3 4 -1 -5 -2
right_child=1 2 -4 5 -6 -7 -8
leaf_value=0.061637874065013233 -0.1067262992713659 -0.11084296327490145 -0.024743427384584942 0.044997023550863803 0.01667396946225012 0.095462602547881747 -0.072067405866126741
leaf_weight=21.713897284120321 10.323661860078571 6.8258618824183932 57.066988915205002 2.6000379845500001 62.67288988083601 9.8743701577186549 2.9551380760967723
leaf_count=296 210 91 632 34 510 198 59
internal_value=-0.000232 -0.0451384 -0.0339417 0.035546 0.0282438 0.0849441 -0.0990131
internal_weight=174.033 77.1717 63.8929 96.8612 84.3868 12.4744 13.2788
internal_count=2030 992 723 1038 806 232 269
is_linear=0
shrinkage=0.1


Tree=26
num_leaves=8
num_cat=0
split_feature=7 8 7 7 0 9 3
split_gain=23.6907 4.34619 4.65389 3.38811 6.66584 2.42665 0.429436
threshold=-0.34954142014125306 0.2663943204705696 0.21917615260069773 -0.80664919505794386 1.4544097302886003 1.661443539710872 1.1255104765486637
decision_type=2 2 2 2 2 2 2
left_child=3 6 -3 4 -1 -5 -2
right_child=1 2 -4 5 -6 -7 -8
leaf_value=0.046825339803769912 -0.1057399154516383 -0.073895446286230973 -0.012670703193566439 0.033331037708265385 -0.098855288386814497 0.082736358796833165 -0.069879461225829012
leaf_weight=7.4136373773217183 8.9290016740560514 17.66362614557147 41.78624389693141 70.404718715697527 5.4497167021036148 11.576329063624142 5.334423951804637
leaf_count=74 191 272 438 692 38 232 93
internal_value=-0.000230086 -0.0427554 -0.0308617 0.0328207 -0.014894 0.0403074 -0.0923284
internal_weight=168.558 73.7133 59.4499 94.8444 12.8634 81.981 14.2634
internal_count=2030 994 710 1036 112 924 284
is_linear=0
shrinkage=0.1


Tree=27
num_leaves=8
num_cat=0
split_feature=8 5 2 8 0 7 7
split_gain=19.9385 4.53234 4.57774 3.20064 4.1811 0.815387 0.304445
threshold=-0.42060309583730976 0.29855309525733914 0.5415567173605057 -0.70436289822534681 0.5826656962885437 -0.65533995627829422 1.2685954832554884
decision_type=2 2 2 2 2 2 2
left_child=3 6 -3 4 -1 -5 -2
right_child=1 2 -4 5 -6 -7 -8
leaf_value=0.061940055397314592 -0.10601550348897554 -0.070772941147409105 -0.010660081473426508 0.090131974157893743 0.010155385550647357 0.0011879579968309556 -0.067284167179161566
leaf_weight=21.134445689618587 8.8838962912559492 18.100237272679806 42.212436929345131 9.9803821519017202 59.447987496852875 1.1493952348828305 2.6303719058632842
leaf_count=325 210 254 469 133 557 23 59
internal_value=-0.000220774 -0.039676 -0.0287004 0.0306797 0.023737 0.0809465 -0.0971675
internal_weight=163.539 71.8269 60.3127 91.7122 80.5824 11.1298 11.5143
internal_count=2030 992 723 1038 882 156 269
is_linear=0
shrinkage=0.1


Tree=28
num_leaves=8
num_cat=0
split_feature=7 7 0 9 5 5 6
split_gain=16.8762 4.21864 8.05514 3.09741 2.67464 0.757409 0.522096
threshold=-0.26152560531214164 0.21917615260069773 -0.87024102704488382 1.661443539710872 -0.64561699879531431 -1.3537445693348042 0.67302434007919987
decision_type=2 2 2 2 2 2 2
left_child=3 6 -3 4 -1 -5 -2
right_child=1 2 -4 5 -6 -7 -8
leaf_value=0.0089853861435620734 -0.057031703648906529 -0.042930403508153983 0.058062258320309104 -0.010637521229306652 0.048251860760435347 0.087271269367116405 -0.089934872191609005
leaf_weight=55.458087004721165 8.124193627387287 37.85800651088357 9.9793737437576038 0.86124487966298957 25.24258616194129 9.565895598381756 11.866481896489857
leaf_count=525 160 483 114 18 299 214 217
internal_value=-0.00021642 -0.037984 -0.0218623 0.0278947 0.0212677 0.0791843 -0.0765631
internal_weight=158.956 67.8281 47.8374 91.1278 80.7007 10.4271 19.9907
internal_count=2030 974 597 1056 824 232 377
is_linear=0
shrinkage=0.1


Tree=29
num_leaves=8
num_cat=0
split_feature=7 5 3 8 0 8 9
split_gain=14.3132 3.8338 5.29686 3.79597 3.74955 3.32385 0.175306
threshold=-0.57876942139948839 1.0066806657968295 1.575714667168129 -0.70436289822534681 0.5826656962885437 1.4910418886715722 1.0000000180025095e-35
decision_type=2 2 2 2 2 2 2
left_child=3 5 -3 4 -1 -2 -5
right_child=1 2 -4 6 -6 -7 -8
leaf_value=0.05876221608895324 -0.065467619097170138 -0.027030491907296811 0.083315366796852641 0.10876213459194486 0.0071619111006613161 0.08599754147765977 0.078525619906798766
leaf_weight=18.596772734075785 31.757190370932221 30.718697305768728 5.0678414702415457 2.6997746638953668 58.010806605219841 1.5180832929909218 6.6175550576299429
leaf_count=312 578 370 53 39 557 18 103
internal_value=-0.000226419 -0.0341235 -0.0114041 0.0270182 0.0196881 -0.0585575 0.0872869
internal_weight=154.987 69.0618 35.7865 85.9249 76.6076 33.2753 9.31733
internal_count=2030 1019 423 1011 869 596 142
is_linear=0
shrinkage=0.1


Tree=30
num_leaves=8
num_cat=0
split_feature=7 8 2 9 0 5 3
split_gain=12.0029 4.23402 4.21145 2.89241 2.54214 0.721533 0.512647
threshold=-0.34954142014125306 0.2663943204705696 0.5415567173605057 1.661443539710872 1.7449910749552859 -1.3537445693348042 1.1255104765486637
decision_type=2 2 2 2 2 2 2
left_child=3 6 -3 4 -1 -5 -2
right_child=1 2 -4 5 -6 -7 -8
leaf_value=0.025127005237595375 -0.10457965432795968 -0.066631979651130893 -0.0036421380172207926 -0.011395979793361814 -0.027117529512145733 0.084863842428406472 -0.061176886249443729
leaf_weight=66.002732686698437 7.0475184563547355 14.613625215366481 38.784497566521168 0.85564741492271323 10.843752503395079 8.6581904925405961 4.4331817850470543
leaf_count=725 191 240 470 18 79 214 93
internal_value=-0.000223599 -0.0327261 -0.0208808 0.0241941 0.0177548 0.0762065 -0.08782
internal_weight=151.239 64.8788 53.3981 86.3603 76.8465 9.51384 11.4807
internal_count=2030 994 710 1036 804 232 284
is_linear=0
shrinkage=0.1


Tree=31
num_leaves=8
num_cat=0
split_feature=7 8 5 3 2 6 9
split_gain=10.1143 3.5286 3.44126 4.82621 3.2827 1.63551 0.185501
threshold=-0.57876942139948839 -0.70436289822534681 0.29855309525733914 1.0000000180025095e-35 -0.50174342458732391 -0.3634974794798439 1.0000000180025095e-35
decision_type=2 2 2 2 2 2 2
left_child=1 4 5 -4 -1 -2 -3
right_child=2 6 3 -5 -6 -7 -8
leaf_value=0.0089416987297951736 0.03708057320117155 0.10770352251578308 -0.10909010296471924 -0.0096298337869223441 0.078259108028876437 -0.094531006919257643 0.074908531098336825
leaf_weight=66.331440515816212 1.0471270494163043 2.4135160930454713 5.4144999869167796 49.3044821806252 7.616465972736477 9.6058151423931086 6.0439686682075262
leaf_count=672 15 39 91 632 197 281 103
internal_value=-0.000222084 0.0230793 -0.029595 -0.0194715 0.0160812 -0.0815943 0.0842673
internal_weight=147.777 82.4054 65.3719 54.719 73.9479 10.6529 8.45748
internal_count=2030 1011 1019 723 869 296 142
is_linear=0
shrinkage=0.1


Tree=32
num_leaves=8
num_cat=0
split_feature=7 7 0 7 5 9 6
split_gain=8.5029 4.00096 6.41533 2.71118 5.70873 1.77264 0.615159
threshold=-0.26152560531214164 0.21917615260069773 -0.87024102704488382 -0.80664919505794386 -1.1177020458216409 1.661443539710872 0.67302434007919987
decision_type=2 2 2 2 2 2 2
left_child=3 6 -3 4 -1 -5 -2
right_child=1 2 -4 5 -6 -7 -8
leaf_value=-0.14026976717387832 -0.047022083200223386 -0.033638469650595214 0.057634186064984397 0.02207077586118783 0.017022074972249574 0.071154169042644683 -0.085903833911116778
leaf_weight=3.107158586382865 6.8479056097567108 33.729721276089549 9.9791747853159887 63.558240445330739 8.964864067733286 8.3211789689958078 10.027459019795058
leaf_count=28 160 483 114 712 84 232 217
internal_value=-0.000216197 -0.0287678 -0.0128 0.0203883 -0.0234625 0.027753 -0.0701259
internal_weight=144.536 60.5843 43.7089 83.9514 12.072 71.8794 16.8754
internal_count=2030 974 597 1056 112 944 377
is_linear=0
shrinkage=0.1


Tree=33
num_leaves=8
num_cat=0
split_feature=7 5 0 5 5 5 7
split_gain=7.186 5.5291 3.84767 3.0667 4.20007 2.95617 1.23691
threshold=-0.64324987182374593 -0.40957447528215091 0.5826656962885437 1.0066806657968295 1.9508507598494829 -0.64561699879531431 -0.7358672460694976
decision_type=2 2 2 2 2 2 2
left_child=1 2 -1 5 -5 -2 -3
right_child=3 6 -4 4 -6 -7 -8
leaf_value=0.056575512972899991 0.068398248319145441 0.10981095275144193 -0.0022899176785499448 0.0075017925265815182 -0.11180401744762146 -0.056293225891688552 0.030004206663118222
leaf_weight=14.005153132602571 2.0374223869293955 7.5019657760858536 53.602411994710565 30.241645224392414 3.2697980329394332 28.462682703509927 2.6203808523714525
leaf_count=255 43 109 544 382 41 598 58
internal_value=-0.000208732 0.0202242 0.00990427 -0.0250206 -0.00413918 -0.0479638 0.0891513
internal_weight=141.741 77.7299 67.6076 64.0115 33.5114 30.5001 10.1223
internal_count=2030 966 799 1064 423 641 167
is_linear=0
shrinkage=0.1


Tree=34
num_leaves=8
num_cat=0
split_feature=7 5 7 8 3 8 7
split_gain=5.98595 4.98787 3.4281 2.90026 5.46431 4.63804 1.22098
threshold=-0.64324987182374593 -0.40957447528215091 -0.70851190346526705 1.655323879527804 1.575714667168129 2.0286920405646951 -0.7358672460694976
decision_type=2 2 2 2 2 2 2
left_child=1 2 -1 4 -2 -5 -3
right_child=3 6 -4 5 -6 -7 -8
leaf_value=0.00068147402203441601 -0.048079301034019681 0.10881357742827509 0.070355598212831841 0.069521698208214786 0.053303864848718678 -0.042484283240866672 0.027770205983265423
leaf_weight=58.995851997286081 41.622763063758612 6.847094003111124 8.0219352468848211 7.6695194914937002 6.0946650002151719 7.1376720927655697 2.5517821349203569
leaf_count=646 805 109 153 86 89 84 58
internal_value=-0.000186068 0.018589 0.00902137 -0.0231327 -0.0351302 0.0155302 0.0868104
internal_weight=138.941 76.4167 67.0178 62.5246 47.7174 14.8072 9.39888
internal_count=2030 966 799 1064 894 170 167
is_linear=0
shrinkage=0.1


Tree=35
num_leaves=8
num_cat=0
split_feature=7 2 3 9 0 6 0
split_gain=5.03198 4.0041 7.2731 2.17501 2.19963 0.938678 0.881296
threshold=-0.26152560531214164 0.5415567173605057 0.67530628592919817 1.661443539710872 0.29208435162185808 1.3640388864518955 1.0000000180025095e-35
decision_type=2 2 2 2 2 2 2
left_child=3 5 -3 4 -1 -2 -5
right_child=1 2 -4 6 -6 -7 -8
leaf_value=0.04829382229947371 -0.051413932175640081 -0.069094044888148506 0.021342478192663709 0.0050274404559209323 0.0025929742419278749 -0.10682971755958892 0.085920804481689705
leaf_weight=12.785301286727188 11.019629687070845 12.92116076312959 28.522716077044606 1.7556089162826527 59.750889271497726 4.2300215400755397 5.7833432275801897
leaf_count=232 254 250 386 34 592 84 198
internal_value=-0.000178148 -0.0229741 -0.00685336 0.0159615 0.0106483 -0.0667854 0.067083
internal_weight=136.769 56.6935 41.4439 80.0751 72.5362 15.2497 7.53895
internal_count=2030 974 636 1056 824 338 232
is_linear=0
shrinkage=0.1


Tree=36
num_leaves=8
num_cat=0
split_feature=7 5 0 5 3 5 7
split_gain=4.26973 4.52022 2.9473 2.63702 4.49187 4.1361 1.24838
threshold=-0.64324987182374593 -0.40957447528215091 0.5826656962885437 0.29855309525733914 1.0000000180025095e-35 -0.64561699879531431 -0.7358672460694976
decision_type=2 2 2 2 2 2 2
left_child=1 2 -1 5 -5 -2 -3
right_child=3 6 -4 4 -6 -7 -8
leaf_value=0.050389461390109275 0.065915565925652189 0.10790790645993423 -0.003379432353195105 -0.10766958325854591 -0.0011903422364411143 -0.096131233665708568 0.023105306789914501
leaf_weight=12.61613251082599 1.9371113497763861 6.1764293201267719 53.108744682744145 4.3382166866213074 45.66523116081953 8.4285256005823594 2.4145434089004976
leaf_count=255 43 109 544 91 632 298 58
internal_value=-0.000189279 0.0158582 0.00694171 -0.0199441 -0.0104283 -0.0658482 0.0840736
internal_weight=134.685 74.3158 65.7249 60.3691 50.0034 10.3656 8.59097
internal_count=2030 966 799 1064 723 341 167
is_linear=0
shrinkage=0.1


Tree=37
num_leaves=6
num_cat=0
split_feature=5 9 2 5 7
split_gain=3.5471 2.79009 2.50184 0.872113 0.00268621
threshold=1.9508507598494829 1.661443539710872 -0.84951013856993385 -1.3537445693348042 0.41100549261286384
decision_type=2 2 2 2 2
left_child=1 2 -1 -3 -2
right_child=4 3 -4 -5 -6
leaf_value=0.017643350991160902 -0.10749408166694759 -0.044591933414638442 -0.012039100571438085 0.075257801321936518 -0.1136340088633703
leaf_weight=44.619667073711753 1.477395283058285 0.67176357097923745 78.098646107129753 6.3127081226557484 1.3763689473271368
leaf_count=504 26 18 1253 214 15
internal_value=-0.000174154 0.00225229 -0.00124673 0.0637307 -0.110455
internal_weight=132.557 129.703 122.718 6.98447 2.85376
internal_count=2030 1989 1757 232 41
is_linear=0
shrinkage=0.1


Tree=38
num_leaves=6
num_cat=0
split_feature=5 9 5 0 7
split_gain=3.17264 2.41307 2.35052 0.936105 0.00194288
threshold=1.9508507598494829 1.661443539710872 1.7148082363363195 -1.0000000180025095e-35 0.41100549261286384
decision_type=2 2 2 2 2
left_child=1 2 -1 -3 -2
right_child=4 3 -4 -5 -6
leaf_value=-0.0049662401195381574 -0.10674346361622558 -0.0045570904766593073 0.049137079682603113 0.08261575119681186 -0.11220717345229358
leaf_weight=113.17629133537412 1.3457225710153573 1.6389703601598737 8.6432707104831916 4.9593327138572922 1.2604139670729635
leaf_count=1657 26 34 100 198 15
internal_value=-0.000154018 0.00206275 -0.00112753 0.0609627 -0.109386
internal_weight=131.024 128.418 121.82 6.5983 2.60614
internal_count=2030 1989 1757 232 41
is_linear=0
shrinkage=0.1


Tree=39
num_leaves=8
num_cat=0
split_feature=7 5 7 5 3 5 7
split_gain=3.05594 4.06271 2.72291 2.6323 4.074 3.37327 1.28034
threshold=-0.64324987182374593 -0.40957447528215091 -0.70851190346526705 0.29855309525733914 1.0000000180025095e-35 -0.64561699879531431 -0.7358672460694976
decision_type=2 2 2 2 2 2 2
left_child=1 2 -1 5 -5 -2 -3
right_child=3 6 -4 4 -6 -7 -8
leaf_value=-0.0018379214532470182 0.059650650356483287 0.10714702297754064 0.064285363230598955 -0.10676638056034674 0.00059610149372875008 -0.093970463733713178 0.018280755616027631
leaf_weight=57.705291634425521 1.7549253217875955 5.5904726628214121 6.981075012125074 3.8357919566333285 44.981632739305496 7.7055183844640833 2.2834808584302655
leaf_count=646 43 109 153 91 632 298 58
internal_value=-0.000142614 0.0135538 0.00529823 -0.0171957 -0.00783982 -0.0654735 0.0813754
internal_weight=130.838 72.5603 64.6864 58.2779 48.8174 9.46044 7.87395
internal_count=2030 966 799 1064 723 341 167
is_linear=0
shrinkage=0.1


Tree=40
num_leaves=6
num_cat=0
split_feature=5 9 2 7 7
split_gain=2.79825 1.96107 1.94737 0.978091 0.00147233
threshold=1.9508507598494829 1.661443539710872 -0.84951013856993385 -0.70098918424910373 0.41100549261286384
decision_type=2 2 2 2 2
left_child=1 2 -1 -3 -2
right_child=4 3 -4 -5 -6
leaf_value=0.015878767721211173 -0.10594742516832995 0.10274939492745866 -0.010531088993125241 0.022007285032228031 -0.11096132618359825
leaf_weight=43.878552604466677 1.1983036361634725 2.6582216080278158 76.767252488061786 3.4442278603091827 1.1455624513328073
leaf_count=504 26 108 1253 124 15
internal_value=-0.000130503 0.00187161 -0.000925896 0.0571785 -0.108398
internal_weight=129.092 126.748 120.646 6.10245 2.34387
internal_count=2030 1989 1757 232 41
is_linear=0
shrinkage=0.1


Tree=41
num_leaves=6
num_cat=0
split_feature=5 5 7 7 7
split_gain=2.50819 1.74168 5.83773 3.10953 0.00107017
threshold=1.9508507598494829 1.7148082363363195 0.63668706909776496 -0.34954142014125306 0.41100549261286384
decision_type=2 2 2 2 2
left_child=1 3 -3 -1 -2
right_child=4 2 -4 -5 -6
leaf_value=0.01075454787278492 -0.10535803917888656 0.13200005587161043 -0.030691893453415983 -0.023203455904891181 -0.10983493916370538
leaf_weight=74.520712760277092 1.0900259111076587 4.0971011333167535 4.7771030776202679 42.256179369986057 1.0466333553194997
leaf_count=1034 26 51 49 855 15
internal_value=-0.00011467 0.00171225 0.0444208 -0.00153329 -0.107551
internal_weight=127.788 125.651 8.8742 116.777 2.13666
internal_count=2030 1989 100 1889 41
is_linear=0
shrinkage=0.1


Tree=42
num_leaves=6
num_cat=0
split_feature=5 8 6 2 7
split_gain=2.24849 1.73435 6.09404 3.41732 0.000779356
threshold=1.9508507598494829 1.655323879527804 1.0185316132655478 0.5415567173605057 0.41100549261286384
decision_type=2 2 2 2 2
left_child=1 2 -1 -3 -2
right_child=4 3 -4 -5 -6
leaf_value=0.0053994329767642164 -0.10482918477682737 -0.049094572671890518 -0.071857123940935408 0.067984505049741961 -0.10883197333883741
leaf_weight=100.48839060217142 0.99101814907044061 3.4079211987555018 11.364955003373323 9.2864147145301086 0.95531393215060234
leaf_count=1582 26 56 259 92 15
internal_value=-0.000141565 0.00152511 -0.00245029 0.0365535 -0.106794
internal_weight=126.494 124.548 111.853 12.6943 1.94633
internal_count=2030 1989 1841 148 41
is_linear=0
shrinkage=0.1


Tree=43
num_leaves=6
num_cat=0
split_feature=5 9 5 7 7
split_gain=2.01714 1.63647 1.75844 0.968104 0.000568552
threshold=1.9508507598494829 1.661443539710872 -1.3537445693348042 -0.70098918424910373 0.41100549261286384
decision_type=2 2 2 2 2
left_child=1 2 -1 -3 -2
right_child=4 3 -4 -5 -6
leaf_value=0.055947591551874266 -0.10435424185454789 0.10244188942386177 -0.0037817412037445251 0.018874434143374218 -0.1079374276309846
leaf_weight=5.1534151136875144 0.9005833314731706 2.3744264747947454 113.14777614176273 3.3310451693832865 0.87120125815272331
leaf_count=54 26 108 1703 124 15
internal_value=-0.000170753 0.00134298 -0.00117982 0.0536524 -0.106116
internal_weight=125.778 124.007 118.301 5.70547 1.77178
internal_count=2030 1989 1757 232 41
is_linear=0
shrinkage=0.1


Tree=44
num_leaves=6
num_cat=0
split_feature=5 8 6 3 7
split_gain=1.81278 1.40839 5.20824 3.17482 0.000415406
threshold=1.9508507598494829 1.655323879527804 1.0185316132655478 1.1255104765486637 0.41100549261286384
decision_type=2 2 2 2 2
left_child=1 2 -1 -3 -2
right_child=4 3 -4 -5 -6
leaf_value=0.0046500432334342645 -0.10392738737763565 0.079668380323926535 -0.068954696238111901 -0.019298281166781808 -0.1071384000285681
leaf_weight=99.908431390300393 0.81805774942040332 6.7830292880535108 10.63696908764541 6.2082455717027187 0.79387400299310684
leaf_count=1582 26 85 259 63 15
internal_value=-0.000146857 0.00122793 -0.0024324 0.0323744 -0.105509
internal_weight=125.149 123.537 110.545 12.9913 1.61193
internal_count=2030 1989 1841 148 41
is_linear=0
shrinkage=0.1


Tree=45
num_leaves=6
num_cat=0
split_feature=5 9 5 5 7
split_gain=1.62876 1.39321 1.47497 1.00333 0.000303931
threshold=1.9508507598494829 1.661443539710872 -1.3537445693348042 -1.3537445693348042 0.41100549261286384
decision_type=2 2 2 2 2
left_child=1 2 -1 -3 -2
right_child=4 3 -4 -5 -6
leaf_value=0.052387208339409679 -0.10354349821352737 -0.076689696614765809 -0.0035417460968387433 0.06527809872187916 -0.10642376076410334
leaf_weight=4.9210533723235121 0.74281371943652519 0.55472603812813748 112.77451064065099 4.851946727372705 0.72290407866239548
leaf_count=54 26 18 1703 214 15
internal_value=-0.000170847 0.00107687 -0.00120326 0.0507122 -0.104964
internal_weight=124.568 123.102 117.696 5.40667 1.46572
internal_count=2030 1989 1757 232 41
is_linear=0
shrinkage=0.1


Tree=46
num_leaves=6
num_cat=0
split_feature=5 7 0 2 7
split_gain=1.46566 1.33766 4.42254 2.54006 0.000222645
threshold=1.9508507598494829 -0.80664919505794386 1.4544097302886003 -0.84951013856993385 0.41100549261286384
decision_type=2 2 2 2 2
left_child=1 2 -1 -3 -2
right_child=4 3 -4 -5 -6
leaf_value=0.028206783773333917 -0.10319803573738616 0.028554420048646858 -0.096285601171543667 -0.0050930410497726144 -0.10578384793291165
leaf_weight=5.9410060308873636 0.67426098138093837 31.166088052093983 5.4909272864460945 80.091185159049928 0.6578654982149601
leaf_count=74 26 392 38 1485 15
internal_value=-0.000147335 0.000985427 -0.0315888 0.0043325 -0.104475
internal_weight=124.021 122.689 11.4319 111.257 1.33213
internal_count=2030 1989 112 1877 41
is_linear=0
shrinkage=0.1


Tree=47
num_leaves=6
num_cat=0
split_feature=5 7 0 6 7
split_gain=1.31987 1.31297 1.99641 0.645357 0.000163279
threshold=1.9508507598494829 2.8257983610013064 -0.87024102704488382 1.0185316132655478 0.41100549261286384
decision_type=2 2 2 2 2
left_child=1 2 -1 -3 -2
right_child=4 3 -4 -5 -6
leaf_value=-0.027234018759882003 -0.10288698803488945 0.10026109016506149 0.0054421744629581936 0.020076605626100124 -0.10521024060679983
leaf_weight=23.293042587116361 0.61184704676270374 1.8589592054486264 94.774390049278736 2.1817700024694204 0.59834104403853416
leaf_count=431 26 22 1514 22 15
internal_value=-0.000115987 0.000913939 -0.00100438 0.0569659 -0.104036
internal_weight=123.318 122.108 118.067 4.04073 1.21019
internal_count=2030 1989 1945 44 41
is_linear=0
shrinkage=0.1


Tree=48
num_leaves=8
num_cat=0
split_feature=9 3 6 8 6 7 7
split_gain=1.24559 1.23707 4.93746 2.03788 1.02557 1.63957 0.969983
threshold=1.661443539710872 1.575714667168129 1.0185316132655478 1.655323879527804 -1.0545120258525396 -0.70098918424910373 -0.57876942139948839
decision_type=2 2 2 2 2 2 2
left_child=1 3 -3 -1 5 -2 -6
right_child=4 2 -4 -5 6 -7 -8
leaf_value=-0.0097076910097738337 0.10221594195313653 0.11543442535111469 -0.040734506411824287 0.034778381705893514 0.10218726921696977 -0.099003883137294538 -0.039807325601218968
leaf_weight=97.875764793716371 0.68673331197351217 3.9536622334271652 4.14898865763098 11.508260264992712 2.9171648100018501 0.98682357743382432 0.57608877122402136
leaf_count=1539 34 55 59 145 152 37 9
internal_value=-0.000121211 -0.00223453 0.0354676 -0.00502732 0.0479329 -0.0164346 0.0787703
internal_weight=122.653 117.487 8.10265 109.384 5.16681 1.67356 3.49325
internal_count=2030 1798 114 1684 232 71 161
is_linear=0
shrinkage=0.1


Tree=49
num_leaves=8
num_cat=0
split_feature=7 5 8 3 5 3 7
split_gain=1.13855 3.76333 2.92799 3.93307 3.09021 2.43491 1.34796
threshold=-0.64324987182374593 -0.40957447528215091 0.057308150289910556 1.0000000180025095e-35 -0.64561699879531431 -1.0000000180025095e-35 -0.7358672460694976
decision_type=2 2 2 2 2 2 2
left_child=1 5 4 -4 -2 -1 -3
right_child=2 6 3 -5 -6 -7 -8
leaf_value=-0.0029848182949939956 0.052090702422315727 0.10638848669932244 -0.10593866865701296 0.006015174171239375 -0.10708894322925942 0.11188918323962141 0.010794405904374818
leaf_weight=60.119686878286302 1.5730981361120937 4.9230511644855142 3.3803011518903068 43.77912269346416 5.4270641040056935 1.9036089023575176 2.1061283899471155
leaf_count=773 43 109 103 717 201 26 58
internal_value=-0.000113325 0.00839995 -0.0109676 -0.00200947 -0.0713176 0.000540876 0.077746
internal_weight=123.212 69.0525 54.1596 47.1594 7.00016 62.0233 7.02918
internal_count=2030 966 1064 820 244 799 167
is_linear=0
shrinkage=0.1


Tree=50
num_leaves=6
num_cat=0
split_feature=8 8 3 6 8
split_gain=1.08098 2.84433 4.54174 4.05205 1.33536
threshold=2.2079087578624028 1.655323879527804 1.1255104765486637 1.0185316132655478 2.5066032866919152
decision_type=2 2 2 2 2
left_child=1 3 -3 -1 -2
right_child=4 2 -4 -5 -6
leaf_value=0.0032254118879719838 -0.1120269189402557 0.1170198397497752 -0.022125719950510589 -0.064615612400884273 -0.0028013263502860179
leaf_weight=98.452222522813827 1.8946468010544766 5.2040515681728703 4.2709003910422325 9.6688470048829895 2.7351865554228425
leaf_count=1601 26 62 45 259 37
internal_value=-0.000103436 0.00176257 0.054299 -0.00284135 -0.0474992
internal_weight=122.226 117.596 9.47495 108.121 4.62983
internal_count=2030 1967 107 1860 63
is_linear=0
shrinkage=0.1


Tree=51
num_leaves=7
num_cat=0
split_feature=7 0 8 2 5 7
split_gain=1.06834 6.1871 2.45793 1.87915 1.83212 1.67153
threshold=-0.81895909922984755 1.4544097302886003 -0.8387754361986276 -0.84951013856993385 -0.88165952230847766 -0.76630006471670387
decision_type=2 2 2 2 2 2
left_child=1 2 -1 4 -2 -5
right_child=3 -3 -4 5 -6 -7
leaf_value=-0.024729552818896973 0.044865560283389443 -0.15311440418068276 0.10977915510660817 -0.065400985996503458 -0.0022061298133156846 -0.0023315970414659938
leaf_weight=3.6176919788122177 17.383110150694847 2.9015058092772961 2.1754630487412197 4.4497752971947184 15.769970951601861 75.525679470971227
leaf_count=40 187 20 34 44 223 1482
internal_value=-0.000138796 -0.033918 0.0257816 0.00245736 0.0224749 -0.00584073
internal_weight=121.823 8.69466 5.79316 113.129 33.1531 79.9755
internal_count=2030 94 74 1936 410 1526
is_linear=0
shrinkage=0.1


Tree=52
num_leaves=8
num_cat=0
split_feature=9 5 2 3 7 6 5
split_gain=1.05742 1.16366 2.485 1.28189 0.954364 1.36495 1.87043e-05
threshold=1.661443539710872 -1.3537445693348042 -1.1972768525525437 1.575714667168129 -0.70098918424910373 -1.0545120258525396 -1.1177020458216409
decision_type=2 2 2 2 2 2 2
left_child=1 2 -1 -3 6 -6 -2
right_child=4 3 -4 -5 5 -7 -8
leaf_value=-0.036890925691468616 0.10235403530963255 -0.0070167414627172898 0.11152874638650588 0.034147940587110841 -0.07850620229840255 0.06067340065713922 0.10169730870820881
leaf_weight=1.9882220141589639 0.69151222705841053 103.9152617896907 2.6076108030974856 8.1587924826890212 1.0944123454391954 1.9784821271896356 1.1631617704406378
leaf_count=22 33 1630 32 114 37 87 75
internal_value=-8.11841e-05 -0.00199764 0.0473203 -0.00402003 0.0452947 0.0111045 0.101942
internal_weight=121.597 116.67 4.59583 112.074 4.92757 3.07289 1.85467
internal_count=2030 1798 54 1744 232 124 108
is_linear=0
shrinkage=0.1


Tree=53
num_leaves=7
num_cat=0
split_feature=0 5 5 7 3 3
split_gain=0.932102 4.27767 3.00102 1.6213 3.12344 1.32867
threshold=1.7449910749552859 -0.64561699879531431 -0.88165952230847766 -0.7444841789898301 -1.1255104765486632 -0.67530628592919795
decision_type=2 2 2 2 2 2
left_child=3 2 -2 4 -1 -5
right_child=1 -3 -4 5 -6 -7
leaf_value=-0.0086450515105970308 -0.018012296996971922 0.079116593772499771 -0.14468181758400719 0.035189983349401509 0.048313776600571443 -0.010604659882773548
leaf_weight=19.661727380007505 5.0222651213407508 2.7637537382543078 2.9802397284656754 7.0171872908249489 18.864515664055943 65.228470151312649
leaf_count=255 39 37 23 199 225 1252
internal_value=-5.21806e-05 -0.0281426 -0.0651857 0.00267801 0.019245 -0.00615665
internal_weight=121.538 10.7663 8.0025 110.772 38.5262 72.2457
internal_count=2030 99 62 1931 480 1451
is_linear=0
shrinkage=0.1


Tree=54
num_leaves=6
num_cat=0
split_feature=7 8 8 3 8
split_gain=0.961161 1.53966 4.36509 1.08957 0.442375
threshold=2.8257983610013064 2.2079087578624028 1.655323879527804 1.1255104765486637 1.2072820862835349
decision_type=2 2 2 2 2
left_child=1 2 -1 -3 -2
right_child=4 3 -4 -5 -6
leaf_value=-0.0052697366324704932 0.016684009508422339 -0.10936516131168746 0.068184065154618764 -0.0056273277440682867 0.081216461642858187
leaf_weight=103.46490216627717 2.2933416813611975 2.2199510168284169 8.7765714889392239 1.8614070955663917 1.9788748659193514
leaf_count=1824 30 37 100 23 16
internal_value=-9.04815e-06 -0.00171996 0.000473885 -0.0620529 0.0465752
internal_weight=120.595 116.323 112.241 4.08136 4.27222
internal_count=2030 1984 1924 60 46
is_linear=0
shrinkage=0.1


Tree=55
num_leaves=7
num_cat=0
split_feature=9 5 2 2 5 3
split_gain=0.881772 0.97453 2.26847 1.00896 0.921091 0.974595
threshold=1.661443539710872 -1.3537445693348042 -1.1972768525525437 -0.84951013856993385 -1.3537445693348042 -0.67530628592919795
decision_type=2 2 2 2 2 2
left_child=1 2 -1 -3 -2 -6
right_child=4 3 -4 -5 5 -7
leaf_value=-0.033442471180763995 -0.079993215919776581 0.0095982636899350233 0.11039684444957126 -0.010408379057764469 0.10219043011957347 0.0049203114823849559
leaf_weight=2.0277097448706627 0.54375745728611935 38.311641708016396 2.387253012508153 73.69500975497067 2.2880551386624575 1.8735070778056968
leaf_count=22 18 467 32 1277 137 77
internal_value=-3.34204e-05 -0.0017487 0.0443341 -0.00356515 0.042407 0.0584001
internal_weight=121.127 116.422 4.41496 112.007 4.70532 4.16156
internal_count=2030 1798 54 1744 232 214
is_linear=0
shrinkage=0.1


Tree=56
num_leaves=8
num_cat=0
split_feature=3 6 6 3 7 8 5
split_gain=0.854897 3.53543 7.91057 1.53289 3.34165 1.79277 1.23639
threshold=1.575714667168129 1.0185316132655478 0.32751706689285182 1.1255104765486637 0.41100549261286384 1.655323879527804 1.0066806657968295
decision_type=2 2 2 2 2 2 2
left_child=3 2 -2 5 -5 -1 -3
right_child=1 6 -4 4 -6 -7 -8
leaf_value=-0.0020395731435813485 -0.058708436157037282 -0.10733005552824688 0.21318938663258924 -0.1070634906453239 0.00038198471517877984 0.047158908939717276 0.00715611924111544
leaf_weight=90.63108169939369 1.9137406796216945 1.5404637167230251 2.4270919617265463 4.2706355368718496 8.983368684537707 8.065793199464677 2.4333553863689303
leaf_count=1566 28 33 27 108 141 101 26
internal_value=-9.30859e-06 0.0309277 0.0933179 -0.00230701 -0.0342385 0.00198107 -0.0372248
internal_weight=120.266 8.31465 4.34083 111.951 13.254 98.6969 3.97382
internal_count=2030 114 55 1916 249 1667 59
is_linear=0
shrinkage=0.1


Tree=57
num_leaves=7
num_cat=0
split_feature=7 5 6 7 8 8
split_gain=0.776793 3.50921 2.16249 1.247 1.01319 0.451716
threshold=2.5549804692194251 1.0066806657968295 1.7095461596382433 0.47870996555833417 1.655323879527804 0.74430556659779012
decision_type=2 2 2 2 2 2
left_child=2 5 4 -4 -1 -2
right_child=1 -3 3 -5 -6 -7
leaf_value=-0.0014867569138841833 -0.10769949755937787 0.086699666993585819 -0.019211552936755506 -0.11024805543410049 0.035518271556291135 -0.019965888467761737
leaf_weight=99.694083611480892 1.2115089632570737 4.3114773295819759 3.356499580666422 2.7272141305729747 7.9921019952744237 1.1382112670689819
leaf_count=1731 26 33 79 50 93 18
internal_value=-7.39801e-05 0.0331171 -0.00201731 -0.0600215 0.00125963 -0.0652011
internal_weight=120.431 6.6612 113.77 6.08371 107.686 2.34972
internal_count=2030 77 1953 129 1824 44
is_linear=0
shrinkage=0.1


Tree=58
num_leaves=8
num_cat=1
split_feature=7 2 3 8 4 8 6
split_gain=0.773888 3.96841 5.11705 2.16518 2.33686 1.85 1.37045
threshold=-0.18930750083697331 0.5415567173605057 0.67530628592919817 -0.70436289822534681 0 0.56508884930008241 1.0000000180025095e-35
decision_type=2 2 2 2 1 2 2
left_child=3 5 -3 4 -1 -2 -5
right_child=1 2 -4 6 -6 -7 -8
leaf_value=-0.0030664264752728238 -0.0089808742237692512 -0.055962727818928408 0.028749956966002323 0.077110780654519873 0.11421919404294767 -0.092689602749363761 -0.015308303293536813
leaf_weight=62.542858981527388 4.1925206952728313 9.7339950334280712 26.66031124163419 6.3618110306560975 1.7462326548993576 7.1303825154900551 2.1456501912325621
leaf_count=861 151 245 385 154 21 155 58
internal_value=-9.48836e-05 -0.00999268 0.00609276 0.006393 0.000119308 -0.0616949 0.0538019
internal_weight=120.514 47.7172 36.3943 72.7966 64.2891 11.3229 8.50746
internal_count=2030 936 630 1094 882 306 212
cat_boundaries=0 1
cat_threshold=2
is_linear=0
shrinkage=0.1


Tree=59
num_leaves=8
num_cat=0
split_feature=9 7 5 5 2 2 5
split_gain=0.753405 0.924428 1.3346 0.851996 2.03429 0.799417 5.46894e-05
threshold=1.661443539710872 -0.70098918424910373 -0.88165952230847766 -1.3537445693348042 -1.1972768525525437 -0.84951013856993385 -1.3537445693348042
decision_type=2 2 2 2 2 2 2
left_child=3 6 -3 4 -1 -5 -2
right_child=1 2 -4 5 -6 -7 -8
leaf_value=-0.028509604885110271 0.10293302789117009 -0.081308663359634881 0.058259432808777614 0.0084093580932913369 0.10938936485616751 -0.0094923776681642997 0.10143500423518709
leaf_weight=2.0894848592579365 0.30125722102820862 1.0847424203529952 1.8598562534898513 37.90992533788085 2.1920653246343127 72.939788663759828 1.2756922706030307
leaf_count=22 11 51 73 467 32 1277 97
internal_value=-0.000106903 0.0399342 0.00684481 -0.00167944 0.0420918 -0.00337009 0.101721
internal_weight=119.653 4.52155 2.9446 115.131 4.28155 110.85 1.57695
internal_count=2030 232 124 1798 54 1744 108
is_linear=0
shrinkage=0.1


Tree=60
num_leaves=7
num_cat=0
split_feature=0 5 5 5 7 7
split_gain=0.772683 3.42429 2.07392 1.28108 1.00461 0.000284639
threshold=1.7449910749552859 -0.64561699879531431 -0.88165952230847766 1.9508507598494829 -0.7444841789898301 0.41100549261286384
decision_type=2 2 2 2 2 2
left_child=3 2 -2 4 -1 -5
right_child=1 -3 -4 5 -6 -7
leaf_value=0.016756639636359465 -0.016670124537386373 0.075367553475048046 -0.11912033183911773 -0.10252410920681153 -0.0035452466504717443 -0.10572574038776897
leaf_weight=37.589936750475317 5.0529505312442771 2.5700986310839644 3.2447331091389051 0.5275210104882706 69.326409636065364 0.58632309548556805
leaf_count=480 39 37 23 26 1410 15
internal_value=-7.58315e-05 -0.0254923 -0.0567323 0.00248105 0.00359255 -0.104209
internal_weight=118.898 10.8678 8.29768 108.03 106.916 1.11384
internal_count=2030 99 62 1931 1890 41
is_linear=0
shrinkage=0.1


Tree=61
num_leaves=7
num_cat=0
split_feature=7 0 8 2 5 7
split_gain=0.831376 4.33534 2.12121 1.12528 1.51418 1.22679
threshold=-0.81895909922984755 1.4544097302886003 -0.8387754361986276 -0.84951013856993385 -0.88165952230847766 -0.76630006471670387
decision_type=2 2 2 2 2 2
left_child=1 2 -1 4 -2 -5
right_child=3 -3 -4 5 -6 -7
leaf_value=-0.02093885284152755 0.039450034743612583 -0.12252386458134662 0.10852317218576786 -0.053552473066626652 -0.0042918595402480107 -0.00095108978412497482
leaf_weight=3.7072314284741879 16.3009805418551 3.1994350254535675 1.9216231126338224 4.7199463993310919 15.380685143172739 73.131150878034532
leaf_count=40 187 20 34 44 223 1482
internal_value=-5.36348e-05 -0.0295744 0.0232579 0.00232573 0.0182144 -0.0041402
internal_weight=118.361 8.82829 5.62885 109.533 31.6817 77.8511
internal_count=2030 94 74 1936 410 1526
is_linear=0
shrinkage=0.1


Tree=62
num_leaves=8
num_cat=0
split_feature=7 5 0 2 6 6 3
split_gain=0.670981 2.4492 2.52571 1.62365 1.39199 1.20446 0.990335
threshold=-0.79827162138539831 -0.64561699879531431 1.4544097302886003 -0.84951013856993385 -1.0545120258525396 2.0550534328245913 -1.0000000180025095e-35
decision_type=2 2 2 2 2 2 2
left_child=1 2 -1 6 -3 -5 -2
right_child=3 4 -4 5 -6 -7 -8
leaf_value=0.0036432829657963642 0.021440620470723783 -0.0158768360408784 -0.081504801233091562 -0.0022607340037018018 0.11002093961574842 -0.11009818722772279 0.10977228502858415
leaf_weight=7.3014768436551112 21.289480570703748 1.5441877245903017 6.6623376756906509 76.967414701357484 2.0362918954342595 1.0498710051178921 1.3497248757630576
leaf_count=80 307 17 42 1509 37 17 21
internal_value=-1.57606e-05 -0.0180625 -0.0369821 0.00312976 0.0557238 -0.00371189 0.0267069
internal_weight=118.201 17.5443 13.9638 100.656 3.58048 78.0173 22.6392
internal_count=2030 176 122 1854 54 1526 328
is_linear=0
shrinkage=0.1


Tree=63
num_leaves=8
num_cat=0
split_feature=3 6 6 3 7 8 5
split_gain=0.682306 2.65529 5.32201 1.2445 3.08079 1.83064 1.10332
threshold=1.575714667168129 1.0185316132655478 0.32751706689285182 1.1255104765486637 0.41100549261286384 1.655323879527804 1.0066806657968295
decision_type=2 2 2 2 2 2 2
left_child=3 2 -2 5 -5 -1 -3
right_child=1 6 -4 4 -6 -7 -8
leaf_value=-0.002364727220384812 -0.055211307400522172 -0.10659033113894903 0.16483390299875914 -0.10659890583734609 0.00070327578068625442 0.047569519020832569 0.0058454319393404786
leaf_weight=88.557987456675619 1.8093144483864287 1.3611100437119605 2.8002701960504055 3.8216821420937768 8.9236251106485707 8.0055367136374098 2.4324835957959294
leaf_count=1566 28 33 27 108 141 101 26
internal_value=9.47464e-06 0.0274685 0.0784637 -0.00210145 -0.0314713 0.00177504 -0.0344956
internal_weight=117.712 8.40318 4.60958 109.309 12.7453 96.5635 3.79359
internal_count=2030 114 55 1916 249 1667 59
is_linear=0
shrinkage=0.1


Tree=64
num_leaves=8
num_cat=0
split_feature=9 7 7 2 3 6 5
split_gain=0.66238 0.861421 1.24339 0.672702 3.62199 2.39466 4.11799e-05
threshold=1.661443539710872 -0.70098918424910373 -0.66436721933769027 1.2370901453257257 0.67530628592919817 1.3640388864518955 -1.3537445693348042
decision_type=2 2 2 2 2 2 2
left_child=3 6 -3 5 -5 -1 -2
right_child=1 2 -4 4 -6 -7 -8
leaf_value=-0.00018704911672765196 0.10267277802687941 -0.075757051112799512 0.057749714507700313 -0.06318078536830872 0.03928846253674867 -0.05776951158919777 0.10131350777398949
leaf_weight=86.252018221653998 0.27585110813379277 1.1222706241533158 1.8434681966900819 4.4941591816023019 14.840451593510805 7.8821018505841485 1.160695740021765
leaf_count=1314 11 59 65 113 191 180 97
internal_value=-4.24881e-05 0.0380158 0.00722918 -0.00151905 0.0154704 -0.00500858 0.101575
internal_weight=117.871 4.40229 2.96574 113.469 19.3346 94.1341 1.43655
internal_count=2030 232 124 1798 304 1494 108
is_linear=0
shrinkage=0.1


Tree=65
num_leaves=6
num_cat=0
split_feature=8 8 7 6 8
split_gain=0.570478 1.50785 3.0452 2.47189 1.37037
threshold=2.2079087578624028 1.655323879527804 1.133186537364548 1.0185316132655478 2.5066032866919152
decision_type=2 2 2 2 2
left_child=1 3 -3 -1 -2
right_child=4 2 -4 -5 -6
leaf_value=0.0021160103980438529 -0.11038805772328204 0.077673491805859751 -0.036293145114632573 -0.055620133201795312 0.009498148675684874
leaf_weight=95.201808063779026 1.5598481548950065 6.6915391301736218 3.6090932264924049 8.0417564650997502 2.4525866461917758
leaf_count=1601 26 74 33 259 37
internal_value=-5.06927e-05 0.00125884 0.0377423 -0.00238112 -0.037108
internal_weight=117.557 113.544 10.3006 103.244 4.01243
internal_count=2030 1967 107 1860 63
is_linear=0
shrinkage=0.1


Tree=66
num_leaves=7
num_cat=0
split_feature=7 8 5 8 8 3
split_gain=0.592354 3.02839 2.48142 1.53362 1.29483 0.493807
threshold=2.5549804692194251 1.3566293506982914 1.0066806657968295 2.2079087578624028 1.655323879527804 1.1255104765486637
decision_type=2 2 2 2 2 2
left_child=3 2 -2 4 -1 -5
right_child=1 -3 -4 5 -6 -7
leaf_value=-0.003253337885137441 -0.10720881054051633 0.1017006910328891 0.058192477760093286 -0.10778482699794784 0.036036452112994957 -0.023198118748365873
leaf_weight=98.480601215735078 2.0153774768114086 3.0844011083245277 1.6493121981620786 1.7236664220690721 9.1688259737566096 1.1510514244437215
leaf_count=1801 42 23 12 35 98 19
internal_value=-7.56265e-05 0.0286849 -0.0327691 -0.00183187 9.30919e-05 -0.0739159
internal_weight=117.273 6.74909 3.66469 110.524 107.649 2.87472
internal_count=2030 77 54 1953 1899 54
is_linear=0
shrinkage=0.1


Tree=67
num_leaves=8
num_cat=0
split_feature=9 6 7 7 5 2 8
split_gain=0.567398 0.852627 1.92474 1.05743 0.658817 1.87503 0.722178
threshold=1.661443539710872 -1.0545120258525396 -0.66436721933769027 -0.57876942139948839 -1.3537445693348042 -1.1972768525525437 -0.8387754361986276
decision_type=2 2 2 2 2 2 2
left_child=4 2 -2 -3 5 -1 -6
right_child=1 3 -4 -5 6 -7 -8
leaf_value=-0.027961846998929493 -0.11752895373517794 0.10169251026661706 0.10512651256993773 -0.054571506995807963 -0.014858241690645839 0.10831222148764691 0.002623444737345756
leaf_weight=2.079679548740387 0.90886965394020081 2.1394288619048893 0.67776983603835084 0.54294427856802885 34.585772540420294 1.9624161161482323 74.603914770763367
leaf_count=22 52 152 19 9 377 32 1367
internal_value=-9.69769e-05 0.0356916 -0.0224165 0.0700628 -0.00144626 0.0381985 -0.00291387
internal_weight=117.501 4.26901 1.58664 2.68237 113.232 4.0421 109.19
internal_count=2030 232 71 161 1798 54 1744
is_linear=0
shrinkage=0.1


Tree=68
num_leaves=8
num_cat=0
split_feature=3 6 8 3 7 8 8
split_gain=0.517542 1.89038 3.47719 1.19725 2.78317 1.25396 0.378129
threshold=1.575714667168129 1.0185316132655478 0.81897919880516834 1.1255104765486637 0.41100549261286384 1.655323879527804 1.9838878612402682
decision_type=2 2 2 2 2 2 2
left_child=3 2 -2 5 -5 -1 -3
right_child=1 6 -4 4 -6 -7 -8
leaf_value=-0.0016325925992497843 -0.0069579904424055487 -0.060777293365882772 0.16415925551391886 -0.10649044151479903 -0.0016061073119848534 0.038955460146052952 0.0043374285692795445
leaf_weight=88.296904214657843 2.854716604575513 1.9682695427909496 2.0333746150135994 3.5133174248039714 9.039340094663201 8.3298554820939881 1.6307091061025856
leaf_count=1566 41 41 14 108 141 101 18
internal_value=-5.89057e-05 0.023728 0.0642243 -0.00190798 -0.0309618 0.00186636 -0.0312736
internal_weight=117.666 8.48707 4.88809 109.179 12.5527 96.6268 3.59898
internal_count=2030 114 55 1916 249 1667 59
is_linear=0
shrinkage=0.1


Tree=69
num_leaves=8
num_cat=0
split_feature=0 7 2 6 8 2 8
split_gain=0.556856 2.824 3.78548 2.34141 2.12844 2.20301 0.001378
threshold=-0.87024102704488382 0.21917615260069773 0.1937900033778957 1.3640388864518955 0.14691650893876443 0.5415567173605057 0.057308150289910556
decision_type=2 2 2 2 2 2 2
left_child=4 2 -2 -3 6 -6 -1
right_child=1 3 -4 -5 5 -7 -8
leaf_value=-0.10274262675482396 0.0052010380368177293 0.081497825756454367 -0.062588038783451524 -0.032788028651171162 -0.056499155341905805 0.013619124859594512 -0.10866436087716989
leaf_weight=1.8380739679560094 72.424460495822132 7.4956794176250678 9.2948040282353741 2.356116121634841 5.9864866780117181 17.814901576377451 0.49981986731290806
leaf_count=92 1134 86 292 28 139 247 12
internal_value=-8.66639e-05 0.00358812 -0.00250934 0.0541657 -0.0129602 -0.00401691 -0.104009
internal_weight=117.71 91.5711 81.7193 9.8518 26.1393 23.8014 2.33789
internal_count=2030 1540 1426 114 490 386 104
is_linear=0
shrinkage=0.1


Tree=70
num_leaves=6
num_cat=0
split_feature=0 5 5 5 7
split_gain=0.505801 2.64296 1.25879 1.25429 0.860721
threshold=1.7449910749552859 -0.64561699879531431 1.9508507598494829 -0.88165952230847766 -0.7444841789898301
decision_type=2 2 2 2 2
left_child=2 3 4 -2 -1
right_child=1 -3 -4 -5 -6
leaf_value=0.015394532492975722 -0.01452929475119496 0.071940101091882008 -0.10519343860401123 -0.092044351784497838 -0.0035729783098907781
leaf_weight=36.925268080551177 5.0773725202307096 2.4161223294213405 1.0843603988178063 3.5449753180146208 67.950795076787472
leaf_count=480 39 37 41 23 1410
internal_value=-0.000125271 -0.0204965 0.00199691 -0.0463987 0.00310519
internal_weight=116.999 11.0385 105.96 8.62235 104.876
internal_count=2030 99 1931 62 1890
is_linear=0
shrinkage=0.1


Tree=71
num_leaves=7
num_cat=0
split_feature=7 0 8 7 5 7
split_gain=0.547087 2.68657 1.84068 0.836215 2.75866 1.16975
threshold=-0.81895909922984755 1.4544097302886003 -0.8387754361986276 -0.7444841789898301 -0.40957447528215091 -0.70851190346526705
decision_type=2 2 2 2 2 2
left_child=1 2 -1 4 -2 -5
right_child=3 -3 -4 5 -6 -7
leaf_value=-0.01847419357211677 0.0058844353427195623 -0.091579126719447748 0.10749701596672455 -0.031186257546547781 0.10533069178756127 0.0017110602187124504
leaf_weight=3.7682340182363987 33.81337355170399 3.5430859215557575 1.6757829915732125 13.32132421270944 3.0402742784935972 57.30459520034492
leaf_count=40 376 20 34 232 79 1249
internal_value=-0.00010415 -0.0238059 0.0203024 0.00187772 0.0140883 -0.00449397
internal_weight=116.467 8.9871 5.44402 107.48 36.8536 70.6259
internal_count=2030 94 74 1936 455 1481
is_linear=0
shrinkage=0.1


Tree=72
num_leaves=8
num_cat=0
split_feature=9 7 5 5 2 8 5
split_gain=0.495309 0.855333 1.07453 0.55957 1.68019 0.582125 3.19166e-05
threshold=1.661443539710872 -0.70098918424910373 -0.88165952230847766 -1.3537445693348042 -1.1972768525525437 -0.8387754361986276 -1.3537445693348042
decision_type=2 2 2 2 2 2 2
left_child=3 6 -3 4 -1 -5 -2
right_child=1 2 -4 5 -6 -7 -8
leaf_value=-0.024291434466497914 0.10245434853165913 -0.071802113768636239 0.053434148859666353 -0.013299166179842895 0.10745854548504352 0.002388746508465012 0.10120104077396148
leaf_weight=2.1188649423420434 0.25265621952712525 1.1418007062748072 1.7128791548311704 34.856061562895775 1.7820570040494192 73.591322601307184 1.0378130793105809
leaf_count=22 11 51 73 377 32 1367 97
internal_value=-6.25145e-05 0.0338844 0.00334277 -0.001315 0.0358959 -0.0026535 0.101446
internal_weight=116.493 4.14515 2.85468 112.348 3.90092 108.447 1.29047
internal_count=2030 232 124 1798 54 1744 108
is_linear=0
shrinkage=0.1


Tree=73
num_leaves=8
num_cat=0
split_feature=0 7 2 5 8 2 5
split_gain=0.455933 2.19994 3.24319 2.17862 1.95275 1.87456 0.00128858
threshold=-0.87024102704488382 0.21917615260069773 0.1937900033778957 1.4787657128231564 0.14691650893876443 0.5415567173605057 1.0066806657968295
decision_type=2 2 2 2 2 2 2
left_child=4 2 -2 -3 6 -6 -1
right_child=1 3 -4 -5 5 -7 -8
leaf_value=-0.10243999813824996 0.0047586265319388577 0.01073616095412112 -0.059670208387376758 0.10580177612303517 -0.053547196976547765 0.012312055988577176 -0.10874425702637064
leaf_weight=1.7246290016919403 71.876902707386762 6.3172165974974614 8.7657009866088611 3.8982208613306284 5.6904116752557483 17.969191125594079 0.39928672462701786
leaf_count=97 1134 84 292 30 139 247 7
internal_value=-3.69813e-05 0.00329355 -0.00224467 0.0470133 -0.0117734 -0.00352787 -0.103625
internal_weight=116.642 90.858 80.6426 10.2154 25.7835 23.6596 2.12392
internal_count=2030 1540 1426 114 490 386 104
is_linear=0
shrinkage=0.1


Tree=74
num_leaves=8
num_cat=0
split_feature=7 2 8 2 0 0 6
split_gain=0.477454 2.19267 2.65345 1.7592 3.53042 3.01106 0.872912
threshold=-0.78833088527832529 -1.1972768525525437 -0.80890598331567631 -1.1972768525525437 1.4544097302886003 1.4544097302886003 -1.0545120258525396
decision_type=2 2 2 2 2 2 2
left_child=3 2 -2 4 -1 -5 -3
right_child=1 6 -4 5 -6 -7 -8
leaf_value=0.011125726054926129 0.092936558749590795 -0.024845913353481228 -0.024809346960260076 -0.023021639997095306 -0.089191465710729542 0.1242993062334201 0.0025181641995389026
leaf_weight=7.9498017579317111 5.4586692117154598 13.854273304343222 2.9472501836717111 3.7399646397680035 6.2789413686841726 2.2055092379450798 73.523395013762638
leaf_count=109 74 215 49 53 39 17 1474
internal_value=-7.2656e-05 0.00287223 0.051653 -0.0140544 -0.0331428 0.0316279 -0.00182058
internal_weight=115.958 95.7836 8.40592 20.1742 14.2287 5.94547 87.3777
internal_count=2030 1812 123 218 148 70 1689
is_linear=0
shrinkage=0.1


Tree=75
num_leaves=6
num_cat=0
split_feature=8 8 8 3 6
split_gain=0.444287 1.30326 0.725902 2.41126 2.08115
threshold=2.2079087578624028 2.5066032866919152 1.655323879527804 1.1255104765486637 1.3640388864518955
decision_type=2 2 2 2 2
left_child=2 -2 4 -4 -1
right_child=1 -3 3 -5 -6
leaf_value=0.0012139344748790047 -0.11026416658428723 0.011220745893473782 0.064754431422154521 -0.030738717834410803 -0.076401047316922238
leaf_weight=97.752572542754933 1.4012049352750175 2.3879868378862739 6.448237447999416 4.4822986703366041 3.5812776894308618
leaf_count=1714 26 37 62 45 146
internal_value=-2.48507e-05 -0.0337032 0.00111187 0.0255954 -0.00152909
internal_weight=116.054 3.78919 112.264 10.9305 101.334
internal_count=2030 63 1967 107 1860
is_linear=0
shrinkage=0.1


Tree=76
num_leaves=7
num_cat=0
split_feature=7 8 5 8 8 3
split_gain=0.444327 2.22757 2.07888 1.26228 0.717727 0.495634
threshold=2.5549804692194251 1.3566293506982914 1.0066806657968295 2.2079087578624028 1.655323879527804 1.1255104765486637
decision_type=2 2 2 2 2 2
left_child=3 2 -2 4 -1 -5
right_child=1 -3 -4 5 -6 -7
leaf_value=-0.0024882338197215973 -0.10658505103577616 0.084040280581612628 0.047778712486066986 -0.10730041250560643 0.026179448958385306 -0.018952448670807434
leaf_weight=96.888635234208778 1.7762077879160636 3.2763810232281685 1.7146554589271543 1.5165715967304998 9.5983764212578517 1.092369341291487
leaf_count=1801 42 23 12 35 98 19
internal_value=-4.55571e-05 0.0248188 -0.0307641 -0.0015879 9.57734e-05 -0.0703089
internal_weight=115.863 6.76724 3.49086 109.096 106.487 2.60894
internal_count=2030 77 54 1953 1899 54
is_linear=0
shrinkage=0.1


Tree=77
num_leaves=7
num_cat=0
split_feature=7 8 3 5 7 5
split_gain=0.436681 2.7141 2.37244 1.73902 0.900507 0.000221246
threshold=-0.18930750083697331 0.057308150289910556 1.0000000180025095e-35 1.0066806657968295 -0.64324987182374593 0.29855309525733914
decision_type=2 2 2 2 2 2
left_child=3 5 -3 4 -1 -2
right_child=1 2 -4 -5 -6 -7
leaf_value=0.0052816653465250106 -0.10143366748942027 -0.10476434032550841 0.004005040898195103 0.11829997240060669 -0.047276530421103573 -0.10319884201925032
leaf_weight=65.905151534592733 1.387371712829917 2.1100896256975821 40.384716062806547 1.3258022586815048 3.4295536875724784 1.4544913936406372
leaf_count=966 112 89 680 31 97 55
internal_value=-6.33965e-05 -0.00772328 -0.00139593 0.00485128 0.00268194 -0.102337
internal_weight=115.997 45.3367 42.4948 70.6605 69.3347 2.84186
internal_count=2030 936 769 1094 1063 167
is_linear=0
shrinkage=0.1


Tree=78
num_leaves=8
num_cat=0
split_feature=9 7 7 3 2 3 5
split_gain=0.462284 0.764459 0.968487 0.425867 1.45375 0.821523 2.36264e-05
threshold=1.661443539710872 -0.70098918424910373 -0.66436721933769027 1.575714667168129 0.5415567173605057 1.1255104765486637 -1.3537445693348042
decision_type=2 2 2 2 2 2 2
left_child=3 6 -3 5 -5 -1 -2
right_child=1 2 -4 4 -6 -7 -8
leaf_value=0.00016650441991192391 0.10222059166764359 -0.06314275327882421 0.053879842489005861 -0.05594592961703479 0.042782865192431602 -0.027730544989276035 0.10108790500131233
leaf_weight=91.093204914592206 0.22906804736703634 1.204216278158128 1.7135836975648993 1.9322212575934807 6.5377679672092199 11.939685352146624 0.93917230516672112
leaf_count=1435 11 59 65 44 70 249 97
internal_value=-8.37235e-05 0.0329523 0.005583 -0.00129433 0.0202603 -0.00306627 0.10131
internal_weight=115.589 4.08604 2.9178 111.503 8.46999 103.033 1.16824
internal_count=2030 232 124 1798 114 1684 108
is_linear=0
shrinkage=0.1


Tree=79
num_leaves=8
num_cat=0
split_feature=7 2 8 2 0 0 5
split_gain=0.404223 1.83919 2.39175 1.42519 2.69723 2.68157 1.10494
threshold=-0.78833088527832529 -1.1972768525525437 -0.80890598331567631 -1.1972768525525437 1.4544097302886003 1.4544097302886003 1.9508507598494829
decision_type=2 2 2 2 2 2 2
left_child=3 2 -2 4 -1 -5 -3
right_child=1 6 -4 5 -6 -7 -8
leaf_value=0.0097225478954707217 0.090434705544725075 -0.00034883318222411866 -0.022352637647662751 -0.020803281320681856 -0.077183942327761712 0.1215339952596072 -0.10533420852309311
leaf_weight=7.8537090122699755 5.0459006503224373 86.004748072242364 2.9968070797622186 3.7973407916724673 6.549211049452424 2.0317739490419626 1.0143135245889414
leaf_count=109 74 1648 49 53 39 17 41
internal_value=-7.55343e-05 0.00265611 0.0484088 -0.0129104 -0.0297951 0.0288093 -0.00157257
internal_weight=115.294 95.0618 8.04271 20.232 14.4029 5.82911 87.0191
internal_count=2030 1812 123 218 148 70 1689
is_linear=0
shrinkage=0.1


Tree=80
num_leaves=7
num_cat=0
split_feature=0 5 5 7 5 7
split_gain=0.3974 2.11381 0.799941 0.684117 2.50303 1.33737
threshold=1.7449910749552859 -0.64561699879531431 -0.88165952230847766 -0.7444841789898301 -0.40957447528215091 -0.70851190346526705
decision_type=2 2 2 2 2 2
left_child=3 2 -2 4 -1 -5
right_child=1 -3 -4 5 -6 -7
leaf_value=0.0054253182832225549 -0.014407596129463865 0.068308291630103476 -0.075629654915266256 -0.03488873406539543 0.10458667455998878 0.0023443147590812299
leaf_weight=33.078414627350867 5.0297538600862017 2.249934014864265 3.7073370404541484 11.632483032066373 2.7577759181149295 56.521071459632367
leaf_count=398 39 37 23 202 82 1249
internal_value=-4.013e-05 -0.018127 -0.0403854 0.00187084 0.0130563 -0.00401064
internal_weight=114.977 10.987 8.73709 103.99 35.8362 68.1536
internal_count=2030 99 62 1931 480 1451
is_linear=0
shrinkage=0.1


Tree=81
num_leaves=7
num_cat=0
split_feature=9 0 5 7 8 6
split_gain=0.396724 0.75366 0.998468 0.36871 1.71824 1.12033
threshold=1.661443539710872 -1.0000000180025095e-35 -0.64561699879531431 2.5549804692194251 1.3566293506982914 1.7095461596382433
decision_type=2 2 2 2 2 2
left_child=3 -2 -3 5 -5 -1
right_child=1 2 -4 4 -6 -7
leaf_value=-0.00028622478670044889 -0.027950359138510034 0.10185511093446416 -0.036550469792552671 -0.029215821109897712 0.071234113918789574 -0.049101817847071058
leaf_weight=99.299839627929032 1.4056346509605648 1.8586335130967202 0.72436451492831011 3.3783924328163257 3.4335661120712757 4.9350491566583505
leaf_count=1592 34 130 68 54 23 129
internal_value=-1.13875e-05 0.0309749 0.0630413 -0.00112437 0.0214159 -0.00259742
internal_weight=115.035 3.98863 2.583 111.047 6.81196 104.235
internal_count=2030 232 198 1798 77 1721
is_linear=0
shrinkage=0.1


Tree=82
num_leaves=8
num_cat=0
split_feature=0 7 2 8 5 2 5
split_gain=0.361451 1.76852 2.68039 1.60924 1.49726 1.47708 0.00104274
threshold=-0.87024102704488382 0.21917615260069773 0.1937900033778957 0.14691650893876443 1.4787657128231564 0.5415567173605057 1.0066806657968295
decision_type=2 2 2 2 2 2 2
left_child=3 2 -2 6 -3 -5 -1
right_child=1 4 -4 5 -6 -7 -8
leaf_value=-0.101926520110959 0.0041065052240179959 0.010901652444483928 -0.056363906825887988 -0.049922261316181243 0.088412952520095206 0.0099771759427908363 -0.10795243117351681
leaf_weight=1.3852828615345085 71.086198336211964 6.2675981558859331 8.172903777100144 5.3340166280977455 4.1370769087225199 18.040303889662027 0.36226111464202393
leaf_count=97 1134 84 292 139 30 247 7
internal_value=-1.08158e-05 0.00295947 -0.00212898 -0.0106122 0.0417215 -0.00369187 -0.103176
internal_weight=114.786 89.6638 79.2591 25.1219 10.4047 23.3743 1.74754
internal_count=2030 1540 1426 490 114 386 104
is_linear=0
shrinkage=0.1


Tree=83
num_leaves=8
num_cat=0
split_feature=7 2 8 2 0 5 7
split_gain=0.365743 1.56671 2.15581 1.12169 2.47115 2.20408 0.83024
threshold=-0.78833088527832529 -1.1972768525525437 -0.80890598331567631 -1.1972768525525437 1.4544097302886003 -1.1177020458216409 -0.75946122906564628
decision_type=2 2 2 2 2 2 2
left_child=3 2 -2 5 -5 -1 -3
right_child=1 6 -4 4 -6 -7 -8
leaf_value=-0.087567300594019015 0.088210495319144808 -0.024695914793039408 -0.019890731656972735 -0.020844344214622956 0.11979993108638952 -0.0018790093782393752 0.0028234677004906877
leaf_weight=4.2486470900475988 4.6914515197277069 12.886997624067588 3.0403417022898784 3.7916392404586068 1.8631259780377147 10.228912855498493 73.426816408289596
leaf_count=36 74 146 49 53 17 112 1543
internal_value=-4.09182e-05 0.00257771 0.0457023 -0.0122735 0.025495 -0.0270255 -0.00128529
internal_weight=114.178 94.0456 7.73179 20.1323 5.65477 14.4776 86.3138
internal_count=2030 1812 123 218 70 148 1689
is_linear=0
shrinkage=0.1


Tree=84
num_leaves=7
num_cat=0
split_feature=0 5 5 7 7 7
split_gain=0.359411 1.75663 0.642922 0.609163 2.3628 1.1735
threshold=1.7449910749552859 -0.64561699879531431 -0.88165952230847766 -0.7444841789898301 -0.75946122906564628 -0.70851190346526705
decision_type=2 2 2 2 2 2
left_child=3 2 -2 4 -1 -5
right_child=1 -3 -4 5 -6 -7
leaf_value=0.0015052812582346626 -0.013423319969568123 0.064570838240228384 -0.067924958812966466 -0.032386387835217287 0.073298311161087704 0.0023022810172757184
leaf_weight=30.134170640259981 5.0369551796466103 2.1174714316148302 3.795244373381137 11.806967628886921 5.406677770195528 56.041206001536921
leaf_count=381 39 37 23 202 99 1249
internal_value=-3.3169e-06 -0.0172313 -0.036843 0.00182126 0.0124268 -0.00373426
internal_weight=114.339 10.9497 8.8322 103.389 35.5408 67.8482
internal_count=2030 99 62 1931 480 1451
is_linear=0
shrinkage=0.1


Tree=85
num_leaves=6
num_cat=0
split_feature=8 8 8 8 3
split_gain=0.346172 1.25429 0.380759 1.49103 1.35319
threshold=2.2079087578624028 2.5066032866919152 -0.8387754361986276 -0.86864488908157889 -0.67530628592919795
decision_type=2 2 2 2 2
left_child=2 -2 3 -1 -4
right_child=1 -3 4 -5 -6
leaf_value=0.0044620020786605699 -0.11112325372806522 0.012997148619933091 0.030381147157930652 -0.03954995928524796 -0.0022745375091753864
leaf_weight=30.377065896056592 1.2553275632672005 2.3166998801752925 16.63412110763602 10.309883748181162 53.509277426404878
leaf_count=414 26 37 304 138 1111
internal_value=1.79741e-05 -0.0306228 0.00100552 -0.00669042 0.00546958
internal_weight=114.402 3.57203 110.83 40.6869 70.1434
internal_count=2030 63 1967 552 1415
is_linear=0
shrinkage=0.1


Tree=86
num_leaves=7
num_cat=0
split_feature=9 5 3 5 2 8
split_gain=0.317614 0.795722 1.0389 0.352859 1.73134 0.423795
threshold=1.661443539710872 -1.3537445693348042 -0.67530628592919795 -1.3537445693348042 -1.1972768525525437 -0.8387754361986276
decision_type=2 2 2 2 2 2
left_child=3 -2 -3 4 -1 -5
right_child=1 2 -4 5 -6 -7
leaf_value=-0.033040172957414314 -0.086434444493178067 0.10188114052651338 -0.010042309887426487 -0.011011666278615733 0.10674730800364832 0.0024091976683484522
leaf_weight=1.9671911783516409 0.5223080720752481 1.6717122532427315 1.6458452930673944 35.040252450853586 1.6121359188109625 71.617792129283771
leaf_count=22 18 137 77 377 32 1367
internal_value=2.12763e-05 0.0282933 0.0463557 -0.000963515 0.0299204 -0.00199994
internal_weight=114.077 3.83987 3.31756 110.237 3.57933 106.658
internal_count=2030 232 214 1798 54 1744
is_linear=0
shrinkage=0.1


Tree=87
num_leaves=8
num_cat=0
split_feature=7 7 3 5 8 5 9
split_gain=0.321672 2.47486 2.16693 3.17989 2.68104 2.08825 1.62931
threshold=-0.64324987182374593 -0.70851190346526705 1.0000000180025095e-35 -0.40957447528215091 0.057308150289910556 -0.40957447528215091 1.661443539710872
decision_type=2 2 2 2 2 2 2
left_child=1 5 3 -2 -4 -1 -3
right_child=2 6 4 -5 -6 -7 -8
leaf_value=-0.0075546506614573216 0.05097328165723676 0.088517107835087164 -0.10224325144476565 -0.11804505116189888 0.0070925082059931479 0.062373755879869777 -0.02930858207534286
leaf_weight=53.586337708402425 1.5988301504403351 5.2227425053715697 2.3705309694632879 3.6641617715358725 41.601527658756822 4.6402582204900673 1.5137717602774499
leaf_count=646 47 97 150 150 717 135 88
internal_value=3.66877e-05 0.0046571 -0.00605971 -0.0666994 0.00119822 -0.00198184 0.0620403
internal_weight=114.198 64.9631 49.2351 5.26299 43.9721 58.2266 6.73651
internal_count=2030 966 1064 197 867 781 185
is_linear=0
shrinkage=0.1


Tree=88
num_leaves=8
num_cat=0
split_feature=8 2 7 5 6 5 8
split_gain=0.321513 2.11909 2.831 1.776 1.6773 4.30752 3.87654
threshold=0.92352228389549762 0.5415567173605057 0.21917615260069773 1.7148082363363195 0.32751706689285182 1.0000000180025095e-35 0.37093740556089905
decision_type=2 2 2 2 2 2 2
left_child=4 3 -3 -2 6 -6 -1
right_child=1 2 -4 -5 5 -7 -8
leaf_value=0.0023615158000884345 -0.10595921320142775 -0.078058884471748247 0.021009038021430441 0.023726306773006012 -0.10328272996479509 0.068416860245763253 -0.11203970683959341
leaf_weight=74.140105555881746 3.5779891638085273 3.4647470824420479 17.2246463149786 1.4981499155983327 1.7489259247668076 8.8792385347187501 3.0852479862514874
leaf_count=1260 96 94 167 32 141 185 55
internal_value=3.61923e-05 -0.00978658 0.00441864 -0.0676844 0.002917 0.0401627 -0.00220895
internal_weight=113.619 25.7655 20.6894 5.07614 87.8535 10.6282 77.2254
internal_count=2030 389 261 128 1641 326 1315
is_linear=0
shrinkage=0.1


Tree=89
num_leaves=8
num_cat=0
split_feature=0 5 0 8 8 3 5
split_gain=0.315584 1.36001 2.84114 2.42304 1.33819 1.23242 0.000834509
threshold=-0.87024102704488382 1.7148082363363195 -0.57965968237819832 1.8793447761499387 0.14691650893876443 1.0000000180025095e-35 1.0066806657968295
decision_type=2 2 2 2 2 2 2
left_child=4 3 -3 -2 6 -6 -1
right_child=1 2 -4 -5 5 -7 -8
leaf_value=-0.10158668451327552 0.0022273901591856565 0.10545994199080191 -0.053084786265434017 -0.11520982873795547 -0.10348720033869069 0.001129737091363295 -0.10728588542900433
leaf_weight=1.126918211113664 81.608792034676298 3.409105489961803 1.6909031094983209 1.795561309903859 1.186363865854221 22.146200121380389 0.3327961629256605
leaf_count=97 1439 33 38 30 56 330 7
internal_value=-2.88372e-05 0.00276451 0.0528946 -0.000300844 -0.0100006 -0.0041896 -0.102886
internal_weight=113.297 88.5044 5.10001 83.4044 24.7923 23.3326 1.45971
internal_count=2030 1540 71 1469 490 386 104
is_linear=0
shrinkage=0.1


Tree=90
num_leaves=7
num_cat=0
split_feature=8 5 5 3 7 0
split_gain=0.303463 2.54909 3.39084 1.76732 4.42038 2.7914
threshold=0.74430556659779012 1.7148082363363195 1.242723189309993 0.67530628592919817 -0.044871291886636591 -0.57965968237819832
decision_type=2 2 2 2 2 2
left_child=1 2 -1 4 -2 -5
right_child=3 -3 -4 5 -6 -7
leaf_value=0.0047873120422533 0.10583880037708822 0.15191566534860768 -0.1082242908707249 0.019154185568741253 -0.091895815026282579 -0.080159895924861294
leaf_weight=79.116260896553285 1.4128960631787775 1.1346591066103417 2.7471725018694988 19.595509135629989 5.6577385566197362 3.3078250060789243
leaf_count=1480 42 19 56 215 129 89
internal_value=-5.65293e-05 0.00305809 0.000994869 -0.00868094 -0.0523833 0.0048107
internal_weight=112.972 82.9981 81.8634 29.974 7.07063 22.9033
internal_count=2030 1555 1536 475 171 304
is_linear=0
shrinkage=0.1


Tree=91
num_leaves=7
num_cat=0
split_feature=0 2 5 7 5 7
split_gain=0.314901 0.480091 0.856865 0.446903 2.50962 1.43384
threshold=1.7449910749552859 -1.1972768525525437 -0.88165952230847766 -0.7358672460694976 -0.40957447528215091 -0.70851190346526705
decision_type=2 2 2 2 2 2
left_child=3 -2 -3 4 -1 -5
right_child=1 2 -4 5 -6 -7
leaf_value=0.0031588158817790328 -0.042374809730302887 0.034803873777383795 -0.037055612874434728 -0.040094384020235116 0.10394355319088118 0.0026671703313002593
leaf_weight=35.121955019421875 4.2764940112829208 3.4832221567630768 3.1691064643673581 9.1574429525062424 2.6576450574211767 54.562165622599423
leaf_count=440 24 29 46 148 94 1249
internal_value=-0.000105541 -0.0162341 0.000570694 0.00163108 0.0102486 -0.00347829
internal_weight=112.428 10.9288 6.65233 101.499 37.7796 63.7196
internal_count=2030 99 75 1931 534 1397
is_linear=0
shrinkage=0.1


Tree=92
num_leaves=7
num_cat=0
split_feature=3 5 8 7 7 6
split_gain=0.343518 2.39033 2.73954 1.62244 2.14069 0.000115591
threshold=-1.1255104765486632 -0.40957447528215091 -0.74916707754977374 -0.80439237929309482 -0.7509322240322559 -0.70900475266619167
decision_type=2 2 2 2 2 2
left_child=1 2 -1 -2 -5 -3
right_child=3 5 -4 4 -6 -7
leaf_value=-0.0068648771481010316 -0.071259767026942464 0.10434381065455914 -0.11746334400113866 0.036926928980675053 -0.0026177519832428103 0.10259995642333
leaf_weight=19.763080929871652 2.8623400926589957 1.1208754435647277 2.5258962437510517 17.102737190201879 68.586431618314236 0.57514845975674589
leaf_count=247 19 39 38 222 1433 32
internal_value=-7.43324e-05 -0.0106902 -0.0193984 0.00280108 0.00527499 0.103752
internal_weight=112.537 23.985 22.289 88.5515 85.6892 1.69602
internal_count=2030 356 285 1674 1655 71
is_linear=0
shrinkage=0.1


Tree=93
num_leaves=6
num_cat=0
split_feature=8 8 8 7 7
split_gain=0.295803 1.13343 0.436489 2.46661 1.7458
threshold=2.2079087578624028 2.5066032866919152 1.655323879527804 1.133186537364548 2.8257983610013064
decision_type=2 2 2 2 2
left_child=2 -2 4 -4 -1
right_child=1 -3 3 -5 -6
leaf_value=-0.0036121414547775274 -0.11066525115289168 0.011245005461626444 0.05369544240089022 -0.045968482760446766 0.074417351968668596
leaf_weight=94.795562470564619 1.1362437149509781 2.3193061416968703 7.2833974282257241 3.7679501976817846 2.9567507300525895
leaf_count=1824 26 37 74 33 36
internal_value=-3.71035e-05 -0.0288412 0.000877699 0.0197151 -0.00125195
internal_weight=112.259 3.45555 108.804 11.0513 97.7523
internal_count=2030 63 1967 107 1860
is_linear=0
shrinkage=0.1


Tree=94
num_leaves=7
num_cat=0
split_feature=8 5 5 3 7 2
split_gain=0.305092 1.81038 3.05474 1.48371 3.61439 2.7043
threshold=0.74430556659779012 1.7148082363363195 1.242723189309993 0.67530628592919817 -0.044871291886636591 0.5415567173605057
decision_type=2 2 2 2 2 2
left_child=1 2 -1 4 -2 -5
right_child=3 -3 -4 5 -6 -7
leaf_value=0.0046735786210646097 0.08310031825979404 0.12142387461379803 -0.10753766947449572 -0.07779043173639999 -0.089753425082270369 0.017875397010348636
leaf_weight=78.959846616606228 1.5738801308907566 1.2726471507921804 2.50296118389815 3.4815550711937275 5.2279573632404235 19.533232312649488
leaf_count=1480 42 19 56 98 129 206
internal_value=-5.07529e-05 0.00307477 0.00122587 -0.00872347 -0.0497567 0.00340358
internal_weight=112.552 82.7355 81.4628 29.8166 6.80184 23.0148
internal_count=2030 1555 1536 475 171 304
is_linear=0
shrinkage=0.1


Tree=95
num_leaves=8
num_cat=0
split_feature=9 6 7 7 0 6 7
split_gain=0.277105 0.733743 1.74034 0.979363 0.274499 0.506237 0.389445
threshold=1.661443539710872 -1.0545120258525396 -0.66436721933769027 -0.57876942139948839 1.7449910749552859 -0.70900475266619167 -0.64324987182374593
decision_type=2 2 2 2 2 2 2
left_child=4 2 -2 -3 6 -6 -1
right_child=1 3 -4 -5 5 -7 -8
leaf_value=0.0067159735443903211 -0.1131111391989706 0.10146634356563555 0.10494122741002605 -0.051559658798726142 -0.0017711982027874271 -0.048803660549228529 -0.0059383883861309009
leaf_weight=50.775562584400177 0.92398469056934118 1.6720474783796819 0.60614606551826022 0.55773370712995429 7.4779692366719246 3.2977867722511274 46.67720234952867
leaf_count=699 52 152 19 9 53 26 1020
internal_value=-9.26195e-05 0.0265955 -0.0267319 0.06319 -0.00101978 -0.0161649 0.000654881
internal_weight=111.988 3.75991 1.53013 2.22978 108.229 10.7758 97.4528
internal_count=2030 232 71 161 1798 79 1719
is_linear=0
shrinkage=0.1


Tree=96
num_leaves=8
num_cat=0
split_feature=8 0 0 7 8 7 0
split_gain=0.302743 1.19877 4.14096 2.00454 1.17827 3.72395 1.19104
threshold=-0.8387754361986276 1.4544097302886003 1.1638283856219147 -0.75946122906564628 -0.86864488908157889 -0.80664919505794386 1.0000000180025095e-35
decision_type=2 2 2 2 2 2 2
left_child=4 2 -2 -3 6 -6 -1
right_child=1 3 -4 -5 5 -7 -8
leaf_value=-0.065420523675207287 0.0022666825308264283 -0.054560216848534598 0.11043803430074686 0.059431704098758233 -0.15406605928520606 -0.0058121814056244824 0.0089525991144333208
leaf_weight=2.3357297712937024 58.23854314093478 7.1557471014093608 3.7679288567742324 1.966611897922119 2.1238262057304373 8.3777161883190256 27.561792761320248
leaf_count=53 1299 65 65 49 16 122 361
internal_value=-6.60498e-05 0.00386047 0.0088399 -0.0299857 -0.0069793 -0.035795 0.00314223
internal_weight=111.528 71.1288 62.0065 9.12236 40.3991 10.5015 29.8975
internal_count=2030 1478 1364 114 552 138 414
is_linear=0
shrinkage=0.1


Tree=97
num_leaves=8
num_cat=0
split_feature=8 7 3 7 3 7 8
split_gain=0.244083 1.20315 3.82037 3.53373 1.10657 3.27537 1.01657
threshold=-0.8387754361986276 -0.7509322240322559 -0.67530628592919795 -0.7120290189429539 -0.67530628592919795 -0.75946122906564628 -0.80890598331567631
decision_type=2 2 2 2 2 2 2
left_child=1 2 -1 -3 5 -2 -6
right_child=4 3 -4 -5 6 -7 -8
leaf_value=-0.0075124779680390457 0.0010090222661077947 -0.065795231232405479 0.11000955263055134 0.035026221633287113 0.068740345815134538 0.1072558433006618 -0.0057017442979812125
leaf_weight=22.479872831143442 11.900609397562219 9.4593144250102323 3.1542141027748576 5.4963226611725977 1.8997413273900736 3.8370698604267082 53.36294957739301
leaf_count=230 178 145 42 135 25 126 1149
internal_value=-1.67139e-05 -0.00620227 0.00694833 -0.0287425 0.00351946 0.0269135 -0.00314268
internal_weight=111.59 40.5897 25.6341 14.9556 71.0004 15.7377 55.2627
internal_count=2030 552 272 280 1478 304 1174
is_linear=0
shrinkage=0.1


Tree=98
num_leaves=8
num_cat=0
split_feature=3 6 8 3 7 8 8
split_gain=0.246609 1.54321 1.71355 0.775842 2.32476 1.13487 0.289369
threshold=1.575714667168129 1.0185316132655478 0.81897919880516834 1.1255104765486637 0.41100549261286384 1.655323879527804 1.9838878612402682
decision_type=2 2 2 2 2 2 2
left_child=3 2 -2 5 -5 -1 -3
right_child=1 6 -4 4 -6 -7 -8
leaf_value=-0.0016988477289548842 -0.0017628962717211938 -0.061460621009673679 0.11642256089916576 -0.10728197897556979 -0.00095596385069456828 0.037650524594692578 -0.0038047621441959544
leaf_weight=83.197169773164205 2.6747890263795835 1.8536160988733175 2.2661567088216543 2.68392703635618 8.794392373878507 8.0375365824438614 1.6412610281258819
leaf_count=1566 41 41 14 108 141 101 18
internal_value=3.49208e-05 0.0164711 0.0524427 -0.00131498 -0.0258177 0.00176773 -0.0343843
internal_weight=111.149 8.43582 4.94095 102.713 11.4783 91.2347 3.49488
internal_count=2030 114 55 1916 249 1667 59
is_linear=0
shrinkage=0.1


Tree=99
num_leaves=7
num_cat=0
split_feature=8 5 5 3 7 2
split_gain=0.258955 1.36858 2.68778 1.31396 3.0668 2.29207
threshold=0.74430556659779012 1.7148082363363195 1.242723189309993 0.67530628592919817 -0.044871291886636591 0.5415567173605057
decision_type=2 2 2 2 2 2
left_child=1 2 -1 4 -2 -5
right_child=3 -3 -4 5 -6 -7
leaf_value=0.0043051229975248507 0.068189246552233684 0.10167220726039922 -0.10672840016904298 -0.075041513119038464 -0.087827921214242585 0.016118734257006547
leaf_weight=78.151389205711894 1.6997727043926714 1.3792137671262015 2.2427114490419617 3.2094274261035052 4.8687396161258247 19.615293483715504
leaf_count=1480 42 19 56 98 129 206
internal_value=8.51335e-06 0.00290215 0.00120768 -0.0080417 -0.0474544 0.00330052
internal_weight=111.167 81.7733 80.3941 29.3932 6.56851 22.8247
internal_count=2030 1555 1536 475 171 304
is_linear=0
shrinkage=0.1


end of trees

feature_importances:
social_alone_ratio=156
Friends_circle_size=128
friends_and_posts=100
Time_spent_Alone=78
Going_outside=58
Social_event_attendance=54
drained_by_social=40
Post_frequency=32
Drained_after_socializing=1

parameters:
[boosting: gbdt]
[objective: binary]
[metric: binary_logloss]
[tree_learner: serial]
[device_type: cpu]
[data_sample_strategy: bagging]
[data: ]
[valid: ]
[num_iterations: 100]
[learning_rate: 0.1]
[num_leaves: 31]
[num_threads: 2]
[seed: 42]
[deterministic: 0]
[force_col_wise: 0]
[force_row_wise: 0]
[histogram_pool_size: -1]
[max_depth: 3]
[min_data_in_leaf: 20]
[min_sum_hessian_in_leaf: 0.001]
[bagging_fraction: 1]
[pos_bagging_fraction: 1]
[neg_bagging_fraction: 1]
[bagging_freq: 0]
[bagging_seed: 400]
[bagging_by_query: 0]
[feature_fraction: 1]
[feature_fraction_bynode: 1]
[feature_fraction_seed: 30056]
[extra_trees: 0]
[extra_seed: 12879]
[early_stopping_round: 0]
[early_stopping_min_delta: 0]
[first_metric_only: 0]
[max_delta_step: 0]
[lambda_l1: 0]
[lambda_l2: 0]
[linear_lambda: 0]
[min_gain_to_split: 0]
[drop_rate: 0.1]
[max_drop: 50]
[skip_drop: 0.5]
[xgboost_dart_mode: 0]
[uniform_drop: 0]
[drop_seed: 17869]
[top_rate: 0.2]
[other_rate: 0.1]
[min_data_per_group: 100]
[max_cat_threshold: 32]
[cat_l2: 10]
[cat_smooth: 10]
[max_cat_to_onehot: 4]
[top_k: 20]
[monotone_constraints: ]
[monotone_constraints_method: basic]
[monotone_penalty: 0]
[feature_contri: ]
[forcedsplits_filename: ]
[refit_decay_rate: 0.9]
[cegb_tradeoff: 1]
[cegb_penalty_split: 0]
[cegb_penalty_feature_lazy: ]
[cegb_penalty_feature_coupled: ]
[path_smooth: 0]
[interaction_constraints: ]
[verbosity: -1]
[saved_feature_importance_type: 0]
[use_quantized_grad: 0]
[num_grad_quant_bins: 4]
[quant_train_renew_leaf: 0]
[stochastic_rounding: 1]
[linear_tree: 0]
[max_bin: 255]
[max_bin_by_feature: ]
[min_data_in_bin: 3]
[bin_construct_sample_cnt: 200000]
[data_random_seed: 175]
[is_enable_sparse: 1]
[enable_bundle: 1]
[use_missing: 1]
[zero_as_missing: 0]
[feature_pre_filter: 1]
[pre_partition: 0]
[two_round: 0]
[header: 0]
[label_column: ]
[weight_column: ]
[group_column: ]
[ignore_column: ]
[categorical_feature: 1,4]
[forcedbins_filename: ]
[precise_float_parser: 0]
[parser_config_file: ]
[objective_seed: 16083]
[num_class: 1]
[is_unbalance: 0]
[scale_pos_weight: 1]
[sigmoid: 1]
[boost_from_average: 1]
[reg_sqrt: 0]
[alpha: 0.9]
[fair_c: 1]
[poisson_max_delta_step: 0.7]
[tweedie_variance_power: 1.5]
[lambdarank_truncation_level: 30]
[lambdarank_norm: 1]
[label_gain: ]
[lambdarank_position_bias_regularization: 0]
[eval_at: ]
[multi_error_top_k: 1]
[auc_mu_weights: ]
[num_machines: 1]
[local_listen_port: 12400]
[time_out: 120]
[machine_list_filename: ]
[machines: ]
[gpu_platform_id: -1]
[gpu_device_id: -1]
[gpu_use_dp: 0]
[num_gpu: 1]

end of parameters

pandas_categorical:[[0.0, 1.0], [0.0, 1.0]]
